{"learner":{"attributes":{"scikit_learn":"{\"_estimator_type\": \"regressor\"}"},"feature_names":["press","shift","customer","stock_type","ink_config","qty_ordered","cards_per_sheet"],"feature_types":["int","int","int","int","int","int","int"],"gradient_booster":{"model":{"cats":{"enc":[],"feature_segments":[],"sorted_idx":[]},"gbtree_model_param":{"num_parallel_tree":"1","num_trees":"300"},"iteration_indptr":[0,1,2,3,4,5,6,7,8,9,10,11,12,13,14,15,16,17,18,19,20,21,22,23,24,25,26,27,28,29,30,31,32,33,34,35,36,37,38,39,40,41,42,43,44,45,46,47,48,49,50,51,52,53,54,55,56,57,58,59,60,61,62,63,64,65,66,67,68,69,70,71,72,73,74,75,76,77,78,79,80,81,82,83,84,85,86,87,88,89,90,91,92,93,94,95,96,97,98,99,100,101,102,103,104,105,106,107,108,109,110,111,112,113,114,115,116,117,118,119,120,121,122,123,124,125,126,127,128,129,130,131,132,133,134,135,136,137,138,139,140,141,142,143,144,145,146,147,148,149,150,151,152,153,154,155,156,157,158,159,160,161,162,163,164,165,166,167,168,169,170,171,172,173,174,175,176,177,178,179,180,181,182,183,184,185,186,187,188,189,190,191,192,193,194,195,196,197,198,199,200,201,202,203,204,205,206,207,208,209,210,211,212,213,214,215,216,217,218,219,220,221,222,223,224,225,226,227,228,229,230,231,232,233,234,235,236,237,238,239,240,241,242,243,244,245,246,247,248,249,250,251,252,253,254,255,256,257,258,259,260,261,262,263,264,265,266,267,268,269,270,271,272,273,274,275,276,277,278,279,280,281,282,283,284,285,286,287,288,289,290,291,292,293,294,295,296,297,298,299,300],"tree_info":[0,0,0,0,0,0,0,0,0,0,0,0,0,0,0,0,0,0,0,0,0,0,0,0,0,0,0,0,0,0,0,0,0,0,0,0,0,0,0,0,0,0,0,0,0,0,0,0,0,0,0,0,0,0,0,0,0,0,0,0,0,0,0,0,0,0,0,0,0,0,0,0,0,0,0,0,0,0,0,0,0,0,0,0,0,0,0,0,0,0,0,0,0,0,0,0,0,0,0,0,0,0,0,0,0,0,0,0,0,0,0,0,0,0,0,0,0,0,0,0,0,0,0,0,0,0,0,0,0,0,0,0,0,0,0,0,0,0,0,0,0,0,0,0,0,0,0,0,0,0,0,0,0,0,0,0,0,0,0,0,0,0,0,0,0,0,0,0,0,0,0,0,0,0,0,0,0,0,0,0,0,0,0,0,0,0,0,0,0,0,0,0,0,0,0,0,0,0,0,0,0,0,0,0,0,0,0,0,0,0,0,0,0,0,0,0,0,0,0,0,0,0,0,0,0,0,0,0,0,0,0,0,0,0,0,0,0,0,0,0,0,0,0,0,0,0,0,0,0,0,0,0,0,0,0,0,0,0,0,0,0,0,0,0,0,0,0,0,0,0,0,0,0,0,0,0,0,0,0,0,0,0,0,0,0,0,0,0,0,0,0,0,0,0,0,0,0,0,0,0],"trees":[{"base_weights":[8.959596E0,2.669042E3,-2.1674766E3,6.267819E2,4.7362715E3,-2.7338604E3,-1.669188E3,-9.377395E2,1.4290481E3,3.5329746E3,7.730074E3,-2.9251592E3,-2.1914436E3,-2.0366061E3,-8.392529E2,-2.0479198E3,-4.0694922E2,7.6917926E2,3.2611497E3,2.7300664E3,5.146437E3,5.9365474E3,9.222321E3,-3.2774472E2,-2.7555966E2,-2.6107996E2,-1.843496E3,-2.195858E3,-1.5919929E3,-1.1085066E3,-1.1289197E2,-2.7021375E2,-1.5450027E3,-8.557308E2,8.287636E2,1.7764291E2,1.2612009E3,2.396811E3,3.8169426E3,2.287854E3,3.2942646E3,4.2528708E2,5.9104425E2,5.015396E2,7.593333E2,8.036006E3,1.099387E3,-2.0102373E2,-1.4514207E3,-2.3571133E2,-2.0294847E2,-1.642106E3,-9.019797E1,-1.3901554E3,-5.830033E2,-5.019033E2,5.392233E2,-1.8276428E2,-6.65202E1,-1.1763883E2,-5.701605E1,4.3057934E1,1.596427E2,-4.2172356E0,4.3026005E1,9.637172E1,1.478884E2,1.9127531E2,3.2048788E2,3.3463074E2,4.9438742E2,2.0147392E2,2.5027641E2,3.0033444E2,3.559634E2,7.035744E2,9.173066E2,-1.680521E2,-1.2090197E2,-1.7271326E2,-1.4416435E2,-1.5768727E2,-1.0582108E2,-9.6413185E1,-3.485324E1,-8.050241E1,-3.4899372E1,6.0657163E0,1.2520178E2],"categories":[],"categories_nodes":[],"categories_segments":[],"categories_sizes":[],"default_left":[0,0,0,0,0,0,0,0,0,0,0,0,0,0,0,0,0,0,0,0,0,0,0,0,0,0,0,0,0,0,0,0,0,0,0,0,0,0,0,0,0,0,0,0,0,0,0,0,0,0,0,0,0,0,0,0,0,0,0,0,0,0,0,0,0,0,0,0,0,0,0,0,0,0,0,0,0,0,0,0,0,0,0,0,0,0,0,0,0],"id":0,"left_children":[1,3,5,7,9,11,13,15,17,19,21,23,25,27,29,31,33,35,37,39,41,43,45,-1,-1,-1,47,49,51,53,55,-1,57,59,61,63,65,67,69,71,73,-1,-1,-1,-1,75,-1,-1,77,-1,-1,79,-1,81,83,85,87,-1,-1,-1,-1,-1,-1,-1,-1,-1,-1,-1,-1,-1,-1,-1,-1,-1,-1,-1,-1,-1,-1,-1,-1,-1,-1,-1,-1,-1,-1,-1,-1],"loss_changes":[1.8410602E10,6.0384563E9,4.8904397E8,9.0631245E8,2.53402E9,7.836467E7,2.8279347E8,1.4353846E8,5.7415917E8,6.4534016E8,4.8855757E8,2.6869248E7,2.6850368E7,4.224435E7,5.6200544E7,2.1817568E7,9.3321576E7,1.022251E8,5.138099E7,7.779072E7,8.955597E7,1.0690074E8,1.4072934E8,0E0,0E0,0E0,5.058048E6,7.906304E6,4.535584E6,3.0271072E7,2.0311376E7,0E0,1.04716E7,1.0592416E7,1.3067826E7,8.958331E6,1.100816E7,1.420976E7,2.3234176E7,6.403136E6,7.35104E5,0E0,0E0,0E0,0E0,1.3937664E7,0E0,0E0,1.89584E5,0E0,0E0,2.5424E5,0E0,6.760608E6,6.366236E6,2.036556E6,1.0157635E7,0E0,0E0,0E0,0E0,0E0,0E0,0E0,0E0,0E0,0E0,0E0,0E0,0E0,0E0,0E0,0E0,0E0,0E0,0E0,0E0,0E0,0E0,0E0,0E0,0E0,0E0,0E0,0E0,0E0,0E0,0E0,0E0],"parents":[2147483647,0,0,1,1,2,2,3,3,4,4,5,5,6,6,7,7,8,8,9,9,10,10,11,11,12,12,13,13,14,14,15,15,16,16,17,17,18,18,19,19,20,20,21,21,22,22,26,26,27,27,28,28,29,29,30,30,32,32,33,33,34,34,35,35,36,36,37,37,38,38,39,39,40,40,45,45,48,48,51,51,53,53,54,54,55,55,56,56],"right_children":[2,4,6,8,10,12,14,16,18,20,22,24,26,28,30,32,34,36,38,40,42,44,46,-1,-1,-1,48,50,52,54,56,-1,58,60,62,64,66,68,70,72,74,-1,-1,-1,-1,76,-1,-1,78,-1,-1,80,-1,82,84,86,88,-1,-1,-1,-1,-1,-1,-1,-1,-1,-1,-1,-1,-1,-1,-1,-1,-1,-1,-1,-1,-1,-1,-1,-1,-1,-1,-1,-1,-1,-1,-1,-1],"split_conditions":[1E0,4.0118E4,3.8653E4,2.5086E4,1E0,1E0,1E0,1.6158E4,1E0,5.5742E4,5.0112E4,2.3474E4,2.6681E4,5.7268E4,5.5488E4,9.446E3,1E0,3.2246E4,3.121E4,4.7786E4,6.2513E4,2E0,2E0,-3.2774472E2,-2.7555966E2,-2.6107996E2,2E0,4.7026E4,7.4244E4,2E0,2E0,-2.7021375E2,1E0,2.1168E4,2E0,2.8713E4,3.6005E4,2E0,2E0,4.3513E4,5.1048E4,4.2528708E2,5.9104425E2,5.015396E2,7.593333E2,6.0728E4,1.099387E3,-2.0102373E2,3.121E4,-2.3571133E2,-2.0294847E2,6.5237E4,-9.019797E1,4.8561E4,4.3626E4,5.9399E4,6.486E4,-1.8276428E2,-6.65202E1,-1.1763883E2,-5.701605E1,4.3057934E1,1.596427E2,-4.2172356E0,4.3026005E1,9.637172E1,1.478884E2,1.9127531E2,3.2048788E2,3.3463074E2,4.9438742E2,2.0147392E2,2.5027641E2,3.0033444E2,3.559634E2,7.035744E2,9.173066E2,-1.680521E2,-1.2090197E2,-1.7271326E2,-1.4416435E2,-1.5768727E2,-1.0582108E2,-9.6413185E1,-3.485324E1,-8.050241E1,-3.4899372E1,6.0657163E0,1.2520178E2],"split_indices":[3,5,5,5,2,2,2,5,2,5,5,5,5,5,5,5,2,5,5,5,5,2,2,0,0,0,2,5,5,2,2,0,2,5,2,5,5,2,2,5,5,0,0,0,0,5,0,0,5,0,0,5,0,5,5,5,5,0,0,0,0,0,0,0,0,0,0,0,0,0,0,0,0,0,0,0,0,0,0,0,0,0,0,0,0,0,0,0,0],"split_type":[0,0,0,0,0,0,0,0,0,0,0,0,0,0,0,0,0,0,0,0,0,0,0,0,0,0,0,0,0,0,0,0,0,0,0,0,0,0,0,0,0,0,0,0,0,0,0,0,0,0,0,0,0,0,0,0,0,0,0,0,0,0,0,0,0,0,0,0,0,0,0,0,0,0,0,0,0,0,0,0,0,0,0,0,0,0,0,0,0],"sum_hessian":[3.178E3,1.43E3,1.748E3,7.2E2,7.1E2,8.16E2,9.32E2,2.44E2,4.76E2,5.08E2,2.02E2,6E2,2.16E2,6.45E2,2.87E2,7.8E1,1.66E2,3.51E2,1.25E2,3.41E2,1.67E2,9.4E1,1.08E2,1.89E2,4.11E2,9.5E1,1.21E2,4.72E2,1.73E2,2.09E2,7.8E1,3.2E1,4.6E1,1.22E2,4.4E1,1.6E2,1.91E2,5.1E1,7.4E1,1.94E2,1.47E2,8E1,8.7E1,6.3E1,3.1E1,6.8E1,4E1,8.2E1,3.9E1,2.33E2,2.39E2,1.6E2,1.3E1,1.35E2,7.4E1,4.9E1,2.9E1,3.4E1,1.2E1,5.6E1,6.6E1,3E1,1.4E1,8.6E1,7.4E1,8.3E1,1.08E2,3.4E1,1.7E1,5.5E1,1.9E1,9E1,1.04E2,7.6E1,7.1E1,4E1,2.8E1,1.7E1,2.2E1,1.07E2,5.3E1,8.4E1,5.1E1,2.7E1,4.7E1,1.5E1,3.4E1,1.8E1,1.1E1],"tree_param":{"num_deleted":"0","num_feature":"7","num_nodes":"89","size_leaf_vector":"1"}},{"base_weights":[1.3735923E1,-1.0567955E3,1.1920204E3,-1.9673114E3,-6.404771E2,5.3732916E2,2.7477236E3,-2.5609797E3,-1.6410323E3,-1.00257965E3,3.302939E2,3.4320447E2,3.2071697E3,1.9665735E3,4.377737E3,-2.7538367E3,-1.9611979E3,-1.9113852E2,-9.468387E2,-1.2901731E3,-6.5876117E2,5.6038525E1,8.99973E2,7.650613E1,1.1527457E3,2.145562E3,4.3305674E3,1.5673994E3,2.6764875E3,3.511276E3,5.9364575E3,-3.0361993E2,-2.4909691E2,-1.2189463E3,-2.0791747E2,-1.2460492E3,-6.6394403E2,-1.2324642E3,-1.9634038E3,-7.8459143E2,-2.6065686E2,-8.744467E2,1.8013527E2,1.3995398E3,-8.2053894E1,-2.9803894E2,2.2036725E2,9.2673157E2,1.8693652E3,1.6270387E3,4.28352E3,3.1203286E3,4.773711E3,1.045168E3,2.0737986E3,3.263819E3,1.461235E3,3.30341E3,6.592182E2,3.6920244E3,6.548068E3,-1.9790976E1,-1.4823984E2,-1.3946263E2,-5.71709E1,-2.8846151E1,-1.250293E2,-1.3088464E2,-8.041043E1,-2.1082083E2,-1.3269237E2,-1.07725845E2,-4.6101368E1,5.3554302E1,-5.1490955E1,-1.2422134E2,2.4869825E1,2.2222294E1,-1.3962999E2,4.1698437E1,2.2859622E2,-5.3424507E1,1.2836368E2,2.9091227E1,-4.2717407E1,-8.7141525E1,2.8165638E1,1.4281319E2,9.212104E0,1.680752E1,1.959107E2,1.9921355E2,-8.159293E1,-3.065359E1,5.0996188E2,4.1427472E2,2.319217E2,5.1979346E2,2.2069197E2,-6.907066E1,1.184753E2,1.8251732E2,3.1656876E2,2.404091E2,5.535477E2,-7.1815125E1,1.7471652E2,5.356174E2,3.0127875E2,5.38769E2,8.157999E1,3.8948285E2,7.933506E2],"categories":[],"categories_nodes":[],"categories_segments":[],"categories_sizes":[],"default_left":[0,0,0,0,0,0,0,0,0,0,0,0,0,0,0,0,0,0,0,0,0,0,0,0,0,0,0,0,0,0,0,0,0,0,0,0,0,0,0,0,0,0,0,0,0,0,0,0,0,0,0,0,0,0,0,0,0,0,0,0,0,0,0,0,0,0,0,0,0,0,0,0,0,0,0,0,0,0,0,0,0,0,0,0,0,0,0,0,0,0,0,0,0,0,0,0,0,0,0,0,0,0,0,0,0,0,0,0,0,0,0,0,0],"id":1,"left_children":[1,3,5,7,9,11,13,15,17,19,21,23,25,27,29,31,33,-1,35,37,39,41,43,45,47,49,51,53,55,57,59,-1,-1,61,-1,63,65,67,69,71,73,75,77,79,81,83,85,87,89,91,93,95,97,99,101,103,105,107,-1,109,111,-1,-1,-1,-1,-1,-1,-1,-1,-1,-1,-1,-1,-1,-1,-1,-1,-1,-1,-1,-1,-1,-1,-1,-1,-1,-1,-1,-1,-1,-1,-1,-1,-1,-1,-1,-1,-1,-1,-1,-1,-1,-1,-1,-1,-1,-1,-1,-1,-1,-1,-1,-1],"loss_changes":[4.001129E9,6.287451E8,1.5364666E9,9.671578E7,4.0176544E8,5.5035136E8,5.605491E8,1.5767168E7,6.18128E7,8.141818E7,4.853945E7,2.1430379E8,7.657632E7,8.195213E7,1.7363763E8,2.531392E6,1.66888E6,0E0,7.383256E6,1.5140928E7,1.8881152E7,2.452173E7,4.9664224E7,4.036977E7,3.8111264E7,3.6265216E7,3.338944E6,4.993069E7,7.231648E7,3.9062784E7,4.446016E7,0E0,0E0,2.127566E6,0E0,3.811496E6,1.1087856E7,1.2656896E7,3.36184E5,2.6871824E7,1.9102302E7,1.063532E7,1.2717452E7,5.740105E7,2.2300138E7,1.5943564E7,3.644613E7,7.896E7,8.525968E6,3.1058784E7,2.7784792E7,2.2092E5,1.3573056E7,2.480624E7,2.1097728E7,1.2730886E8,2.4311368E7,3.8151616E7,0E0,5.9007216E7,1.0878464E8,0E0,0E0,0E0,0E0,0E0,0E0,0E0,0E0,0E0,0E0,0E0,0E0,0E0,0E0,0E0,0E0,0E0,0E0,0E0,0E0,0E0,0E0,0E0,0E0,0E0,0E0,0E0,0E0,0E0,0E0,0E0,0E0,0E0,0E0,0E0,0E0,0E0,0E0,0E0,0E0,0E0,0E0,0E0,0E0,0E0,0E0,0E0,0E0,0E0,0E0,0E0,0E0],"parents":[2147483647,0,0,1,1,2,2,3,3,4,4,5,5,6,6,7,7,8,8,9,9,10,10,11,11,12,12,13,13,14,14,15,15,16,16,18,18,19,19,20,20,21,21,22,22,23,23,24,24,25,25,26,26,27,27,28,28,29,29,30,30,33,33,35,35,36,36,37,37,38,38,39,39,40,40,41,41,42,42,43,43,44,44,45,45,46,46,47,47,48,48,49,49,50,50,51,51,52,52,53,53,54,54,55,55,56,56,57,57,59,59,60,60],"right_children":[2,4,6,8,10,12,14,16,18,20,22,24,26,28,30,32,34,-1,36,38,40,42,44,46,48,50,52,54,56,58,60,-1,-1,62,-1,64,66,68,70,72,74,76,78,80,82,84,86,88,90,92,94,96,98,100,102,104,106,108,-1,110,112,-1,-1,-1,-1,-1,-1,-1,-1,-1,-1,-1,-1,-1,-1,-1,-1,-1,-1,-1,-1,-1,-1,-1,-1,-1,-1,-1,-1,-1,-1,-1,-1,-1,-1,-1,-1,-1,-1,-1,-1,-1,-1,-1,-1,-1,-1,-1,-1,-1,-1,-1,-1],"split_conditions":[4.0711E4,2.3944E4,1E0,1.5797E4,1E0,6.8931E4,5.5488E4,1E0,1E0,3.3831E4,2E0,5.763E4,3E0,2E0,2E0,9.446E3,2E0,-1.9113852E2,2.044E4,3.336E4,3.8957E4,2.6884E4,3E0,4.4559E4,4E0,7.9465E4,7.1258E4,2E0,3E0,7.2213E4,2E0,-3.0361993E2,-2.4909691E2,2E0,-2.0791747E2,5E0,2.2833E4,5E0,4E0,2E0,1E0,5E0,4.0434E4,3.121E4,4E0,4.1353E4,1E0,3E0,5.7865E4,7.7303E4,1E0,1E0,3E0,1E0,5.3086E4,5.1048E4,4.1353E4,5.6564E4,6.592182E2,6.3817E4,5.9399E4,-1.9790976E1,-1.4823984E2,-1.3946263E2,-5.71709E1,-2.8846151E1,-1.250293E2,-1.3088464E2,-8.041043E1,-2.1082083E2,-1.3269237E2,-1.07725845E2,-4.6101368E1,5.3554302E1,-5.1490955E1,-1.2422134E2,2.4869825E1,2.2222294E1,-1.3962999E2,4.1698437E1,2.2859622E2,-5.3424507E1,1.2836368E2,2.9091227E1,-4.2717407E1,-8.7141525E1,2.8165638E1,1.4281319E2,9.212104E0,1.680752E1,1.959107E2,1.9921355E2,-8.159293E1,-3.065359E1,5.0996188E2,4.1427472E2,2.319217E2,5.1979346E2,2.2069197E2,-6.907066E1,1.184753E2,1.8251732E2,3.1656876E2,2.404091E2,5.535477E2,-7.1815125E1,1.7471652E2,5.356174E2,3.0127875E2,5.38769E2,8.157999E1,3.8948285E2,7.933506E2],"split_indices":[5,5,2,5,2,5,5,2,2,5,2,5,0,2,2,5,0,0,5,5,5,5,1,5,0,5,5,1,4,5,0,0,0,1,0,0,5,0,0,1,1,0,5,5,0,5,0,0,5,5,4,4,1,0,5,5,5,5,0,5,5,0,0,0,0,0,0,0,0,0,0,0,0,0,0,0,0,0,0,0,0,0,0,0,0,0,0,0,0,0,0,0,0,0,0,0,0,0,0,0,0,0,0,0,0,0,0,0,0,0,0,0,0],"split_type":[0,0,0,0,0,0,0,0,0,0,0,0,0,0,0,0,0,0,0,0,0,0,0,0,0,0,0,0,0,0,0,0,0,0,0,0,0,0,0,0,0,0,0,0,0,0,0,0,0,0,0,0,0,0,0,0,0,0,0,0,0,0,0,0,0,0,0,0,0,0,0,0,0,0,0,0,0,0,0,0,0,0,0,0,0,0,0,0,0,0,0,0,0,0,0,0,0,0,0,0,0,0,0,0,0,0,0,0,0,0,0,0,0],"sum_hessian":[3.17E3,1.661E3,1.509E3,5.2E2,1.141E3,1.063E3,4.46E2,1.82E2,3.38E2,8.31E2,3.1E2,9.92E2,7.1E1,3.03E2,1.43E2,1.35E2,4.7E1,2.42E2,9.6E1,4.51E2,3.8E2,2.1E2,1E2,7.47E2,2.45E2,3.8E1,3.3E1,1.96E2,1.07E2,9.4E1,4.9E1,6E1,7.5E1,8E0,3.9E1,4.5E1,5.1E1,4.18E2,3.3E1,2.88E2,9.2E1,2.4E1,1.86E2,6.6E1,3.4E1,2.07E2,5.4E2,1.88E2,5.7E1,3.2E1,6E0,1.1E1,2.2E1,9.8E1,9.8E1,7.1E1,3.6E1,9E1,4E0,1.2E1,3.7E1,2E0,6E0,3.6E1,9E0,3.2E1,1.9E1,3.53E2,6.5E1,2.5E1,8E0,1.5E2,1.38E2,2.2E1,7E1,1.8E1,6E0,1.82E2,4E0,3.2E1,3.4E1,2.6E1,8E0,3.7E1,1.7E2,2.8E1,5.12E2,1.17E2,7.1E1,3E0,5.4E1,2.8E1,4E0,1E0,5E0,3E0,8E0,1.8E1,4E0,7E0,9.1E1,8.2E1,1.6E1,5.3E1,1.8E1,4E0,3.2E1,9E0,8.1E1,7E0,5E0,1.4E1,2.3E1],"tree_param":{"num_deleted":"0","num_feature":"7","num_nodes":"113","size_leaf_vector":"1"}},{"base_weights":[3.2881508E1,2.3740085E3,-1.9554734E3,6.9876025E2,4.1156694E3,-2.3554558E3,-1.6151736E3,-6.788059E2,1.4210541E3,3.1914856E3,5.358626E3,-2.5750522E3,-2.1435045E2,-1.7916478E3,-1.3675948E3,-1.5643511E3,-2.139385E2,9.5268787E2,1.8761893E3,2.9115923E3,3.5913767E3,4.71926E2,6.1879285E2,-2.7808762E2,-2.454091E2,-2.1889757E2,-1.7592455E3,-1.435649E3,-9.112587E2,-2.1159802E2,-1.0708583E3,-6.6921277E2,2.5664324E1,6.715832E2,1.2352118E3,1.9234766E2,1.938532E3,1.8985344E2,2.950275E3,4.06392E3,3.1716765E3,-1.8933595E2,-1.6774907E3,-1.49677E3,-1.1940654E3,-1.6373805E2,-7.863814E2,-8.0137985E1,-1.1459094E2,-3.1354795E1,-7.11061E1,-8.194861E1,9.786137E0,5.0360275E1,1.04291725E2,1.3196534E0,1.3101321E2,8.02795E0,3.4038002E1,1.5899448E2,2.189003E2,2.522177E2,3.0645312E2,1.21434525E2,4.1253555E2,2.8831015E2,3.7386154E2,-1.4995769E2,-1.7257713E2,-1.3835902E2,-1.657758E2,-8.525349E1,-1.2809686E2,-4.1646217E1,-9.758061E1],"categories":[],"categories_nodes":[],"categories_segments":[],"categories_sizes":[],"default_left":[0,0,0,0,0,0,0,0,0,0,0,0,0,0,0,0,0,0,0,0,0,0,0,0,0,0,0,0,0,0,0,0,0,0,0,0,0,0,0,0,0,0,0,0,0,0,0,0,0,0,0,0,0,0,0,0,0,0,0,0,0,0,0,0,0,0,0,0,0,0,0,0,0,0,0],"id":2,"left_children":[1,3,5,7,9,11,13,15,17,19,21,23,-1,25,27,29,31,33,35,37,39,-1,-1,-1,-1,-1,41,43,45,-1,47,49,51,53,55,57,59,-1,61,63,65,-1,67,69,71,-1,73,-1,-1,-1,-1,-1,-1,-1,-1,-1,-1,-1,-1,-1,-1,-1,-1,-1,-1,-1,-1,-1,-1,-1,-1,-1,-1,-1,-1],"loss_changes":[1.4909924E10,4.2890813E9,2.319447E8,7.4821523E8,8.1112576E8,3.1436288E7,3.857587E7,1.06285544E8,1.0330541E8,3.6104704E7,1.330473E8,2.760448E6,0E0,3.165696E6,1.095872E7,2.1962128E7,1.867071E7,1.8628064E7,2.5765888E7,4.195712E6,2.0230912E7,0E0,0E0,0E0,0E0,0E0,2.404864E6,3.26272E6,3.608904E6,0E0,7.27E4,6.55202E5,6.975157E6,7.271892E6,1.1060704E7,1.385716E5,1.747424E7,0E0,3.961088E6,8.120448E6,4.436416E6,0E0,2.03712E5,2.607616E6,1.104256E6,0E0,2.957066E6,0E0,0E0,0E0,0E0,0E0,0E0,0E0,0E0,0E0,0E0,0E0,0E0,0E0,0E0,0E0,0E0,0E0,0E0,0E0,0E0,0E0,0E0,0E0,0E0,0E0,0E0,0E0,0E0],"parents":[2147483647,0,0,1,1,2,2,3,3,4,4,5,5,6,6,7,7,8,8,9,9,10,10,11,11,13,13,14,14,15,15,16,16,17,17,18,18,19,19,20,20,26,26,27,27,28,28,30,30,31,31,32,32,33,33,34,34,35,35,36,36,38,38,39,39,40,40,42,42,43,43,44,44,46,46],"right_children":[2,4,6,8,10,12,14,16,18,20,22,24,-1,26,28,30,32,34,36,38,40,-1,-1,-1,-1,-1,42,44,46,-1,48,50,52,54,56,58,60,-1,62,64,66,-1,68,70,72,-1,74,-1,-1,-1,-1,-1,-1,-1,-1,-1,-1,-1,-1,-1,-1,-1,-1,-1,-1,-1,-1,-1,-1,-1,-1,-1,-1,-1,-1],"split_conditions":[1E0,4.0118E4,3.8364E4,2.4931E4,5.2775E4,2.7544E4,5.1048E4,1.6158E4,3.3131E4,4.7198E4,6.1904E4,1.7713E4,-2.1435045E2,1E0,6.8259E4,1.0587E4,1.9738E4,2.9045E4,1E0,1E0,3E0,4.71926E2,6.1879285E2,-2.7808762E2,-2.454091E2,-2.1889757E2,4.2602E4,4E0,1E0,-2.1159802E2,2E0,1.6772E4,1E0,4E0,1E0,3.6607E4,3.6461E4,1.8985344E2,4.1424E4,1E0,4E0,-1.8933595E2,2E0,3E0,1E0,-1.6373805E2,2E0,-8.0137985E1,-1.1459094E2,-3.1354795E1,-7.11061E1,-8.194861E1,9.786137E0,5.0360275E1,1.04291725E2,1.3196534E0,1.3101321E2,8.02795E0,3.4038002E1,1.5899448E2,2.189003E2,2.522177E2,3.0645312E2,1.21434525E2,4.1253555E2,2.8831015E2,3.7386154E2,-1.4995769E2,-1.7257713E2,-1.3835902E2,-1.657758E2,-8.525349E1,-1.2809686E2,-4.1646217E1,-9.758061E1],"split_indices":[3,5,5,5,5,5,5,5,5,5,5,5,0,0,5,5,5,5,0,0,4,0,0,0,0,0,5,0,0,0,4,5,0,0,0,5,5,0,5,0,0,0,0,0,1,0,0,0,0,0,0,0,0,0,0,0,0,0,0,0,0,0,0,0,0,0,0,0,0,0,0,0,0,0,0],"split_type":[0,0,0,0,0,0,0,0,0,0,0,0,0,0,0,0,0,0,0,0,0,0,0,0,0,0,0,0,0,0,0,0,0,0,0,0,0,0,0,0,0,0,0,0,0,0,0,0,0,0,0,0,0,0,0,0,0,0,0,0,0,0,0,0,0,0,0,0,0,0,0,0,0,0,0],"sum_hessian":[3.201E3,1.47E3,1.731E3,7.5E2,7.2E2,7.93E2,9.38E2,2.58E2,4.92E2,4.15E2,3.05E2,3.84E2,4.09E2,5.44E2,3.94E2,8.8E1,1.7E2,2.44E2,2.48E2,2.49E2,1.66E2,1.76E2,1.29E2,1.34E2,2.5E2,3.6E1,5.08E2,3.41E2,5.3E1,4E1,4.8E1,5.8E1,1.12E2,1.24E2,1.2E2,9E0,2.39E2,1.1E1,2.38E2,7.4E1,9.2E1,1.84E2,3.24E2,2.68E2,7.3E1,6E0,4.7E1,1.3E1,3.5E1,7E0,5.1E1,8E0,1.04E2,8.7E1,3.7E1,7E0,1.13E2,6E0,3E0,1.03E2,1.36E2,5.5E1,1.83E2,2E0,7.2E1,6.5E1,2.7E1,7.6E1,2.48E2,1.63E2,1.05E2,1.7E1,5.6E1,1.7E1,3E1],"tree_param":{"num_deleted":"0","num_feature":"7","num_nodes":"75","size_leaf_vector":"1"}},{"base_weights":[-2.3188734E1,2.0898542E3,-1.7578168E3,5.5403937E2,3.716896E3,-2.1318691E3,-1.4413983E3,-6.161983E2,1.1765446E3,2.7463425E3,6.2572837E3,-2.2663586E3,-1.7504902E3,-1.7116892E3,-8.2996136E2,-1.727379E3,-3.1507083E2,6.6011206E2,2.7996511E3,2.0968938E3,3.8534312E3,5.4496714E3,8.458062E3,-2.4266515E2,-2.1059924E2,-2.1467015E2,-1.5858247E3,-1.8641684E2,-1.5072052E3,-1.0659584E3,-3.862943E2,-1.8827693E3,-5.791146E2,-6.665246E2,5.8717444E2,1.8872304E2,1.0105401E3,2.3419165E3,3.8481824E3,1.7651073E3,2.4725029E2,3.3523544E2,4.4279376E2,4.6588433E3,6.9342686E3,7.307426E2,9.8186426E2,-1.7257172E3,-1.2667162E3,-1.530678E3,-9.384749E2,-1.2177874E3,-6.3376904E2,-5.25681E2,7.261442E2,-2.149801E2,-1.5954558E2,-9.747402E1,-2.8478271E1,-1.09165184E2,-4.64098E1,-5.7021127E0,1.0769293E2,9.383628E-1,3.7483982E1,8.6171196E1,1.3001384E2,1.786118E2,2.9374246E2,2.641917E2,4.310226E2,1.4549095E2,1.8644421E2,3.6028284E2,5.147057E2,5.093687E2,7.406305E2,-1.8169034E2,-1.410066E2,-1.4188963E2,-1.0363928E2,-1.6031136E2,-1.407451E2,-2.4241882E1,-9.7337006E1,-1.3293524E2,-1.035214E2,-7.768108E1,-4.935355E1,-7.828811E1,-3.254277E1,4.302952E1,8.759942E1],"categories":[],"categories_nodes":[],"categories_segments":[],"categories_sizes":[],"default_left":[0,0,0,0,0,0,0,0,0,0,0,0,0,0,0,0,0,0,0,0,0,0,0,0,0,0,0,0,0,0,0,0,0,0,0,0,0,0,0,0,0,0,0,0,0,0,0,0,0,0,0,0,0,0,0,0,0,0,0,0,0,0,0,0,0,0,0,0,0,0,0,0,0,0,0,0,0,0,0,0,0,0,0,0,0,0,0,0,0,0,0,0,0],"id":3,"left_children":[1,3,5,7,9,11,13,15,17,19,21,23,25,27,29,31,33,35,37,39,41,43,45,-1,-1,-1,47,-1,49,51,53,55,57,59,61,63,65,67,69,71,-1,-1,-1,73,75,-1,-1,77,79,81,83,85,87,89,91,-1,-1,-1,-1,-1,-1,-1,-1,-1,-1,-1,-1,-1,-1,-1,-1,-1,-1,-1,-1,-1,-1,-1,-1,-1,-1,-1,-1,-1,-1,-1,-1,-1,-1,-1,-1,-1,-1],"loss_changes":[1.1740104E10,3.6062582E9,2.0511744E8,5.4271334E8,1.711188E9,3.727104E7,1.5657357E8,8.611898E7,4.055292E8,3.5788928E8,2.9694003E8,1.008128E7,1.0557504E7,1.783104E7,3.0475936E7,8.723264E6,6.5396348E7,6.092883E7,4.714195E7,3.588864E7,3.898829E7,1.3675904E8,6.527488E6,0E0,0E0,0E0,4.733344E6,0E0,2.408256E6,1.1827008E7,1.6507874E7,2.52736E5,6.539725E5,1.2229804E7,1.8360284E7,5.3035955E6,8.016944E6,2.2555968E7,7.56256E6,2.679744E6,0E0,0E0,0E0,3.1465344E7,3.977984E6,0E0,0E0,4.60256E5,3.1704E5,1.98336E5,1.04082E5,1.495824E6,6.59698E5,4.535208E6,1.5506E5,0E0,0E0,0E0,0E0,0E0,0E0,0E0,0E0,0E0,0E0,0E0,0E0,0E0,0E0,0E0,0E0,0E0,0E0,0E0,0E0,0E0,0E0,0E0,0E0,0E0,0E0,0E0,0E0,0E0,0E0,0E0,0E0,0E0,0E0,0E0,0E0,0E0,0E0],"parents":[2147483647,0,0,1,1,2,2,3,3,4,4,5,5,6,6,7,7,8,8,9,9,10,10,11,11,12,12,13,13,14,14,15,15,16,16,17,17,18,18,19,19,20,20,21,21,22,22,26,26,28,28,29,29,30,30,31,31,32,32,33,33,34,34,35,35,36,36,37,37,38,38,39,39,43,43,44,44,47,47,48,48,49,49,50,50,51,51,52,52,53,53,54,54],"right_children":[2,4,6,8,10,12,14,16,18,20,22,24,26,28,30,32,34,36,38,40,42,44,46,-1,-1,-1,48,-1,50,52,54,56,58,60,62,64,66,68,70,72,-1,-1,-1,74,76,-1,-1,78,80,82,84,86,88,90,92,-1,-1,-1,-1,-1,-1,-1,-1,-1,-1,-1,-1,-1,-1,-1,-1,-1,-1,-1,-1,-1,-1,-1,-1,-1,-1,-1,-1,-1,-1,-1,-1,-1,-1,-1,-1,-1,-1],"split_conditions":[1E0,4.0118E4,3.8364E4,2.5086E4,1E0,1E0,1E0,1.2223E4,1E0,5.521E4,5.8218E4,2.7323E4,2.192E4,5.1048E4,2E0,2E0,1E0,3.1927E4,2E0,4.7026E4,6.3215E4,2E0,2E0,-2.4266515E2,-2.1059924E2,-2.1467015E2,2E0,-1.8641684E2,7.4244E4,5.4956E4,6.486E4,6.743E3,6.743E3,1.9058E4,1.9058E4,2.8713E4,3.7468E4,3.2719E4,2.8348E4,4.2025E4,2.4725029E2,3.3523544E2,4.4279376E2,4.58E4,4.3364E4,7.307426E2,9.8186426E2,3.5401E4,3.0164E4,6.0728E4,1E0,4.6869E4,6.0274E4,4.5677E4,6.967E4,-2.149801E2,-1.5954558E2,-9.747402E1,-2.8478271E1,-1.09165184E2,-4.64098E1,-5.7021127E0,1.0769293E2,9.383628E-1,3.7483982E1,8.6171196E1,1.3001384E2,1.786118E2,2.9374246E2,2.641917E2,4.310226E2,1.4549095E2,1.8644421E2,3.6028284E2,5.147057E2,5.093687E2,7.406305E2,-1.8169034E2,-1.410066E2,-1.4188963E2,-1.0363928E2,-1.6031136E2,-1.407451E2,-2.4241882E1,-9.7337006E1,-1.3293524E2,-1.035214E2,-7.768108E1,-4.935355E1,-7.828811E1,-3.254277E1,4.302952E1,8.759942E1],"split_indices":[3,5,5,5,2,2,2,5,2,5,5,5,5,5,2,2,2,5,2,5,5,2,2,0,0,0,2,0,5,5,5,5,5,5,5,5,5,5,5,5,0,0,0,5,5,0,0,5,5,5,4,5,5,5,5,0,0,0,0,0,0,0,0,0,0,0,0,0,0,0,0,0,0,0,0,0,0,0,0,0,0,0,0,0,0,0,0,0,0,0,0,0,0],"split_type":[0,0,0,0,0,0,0,0,0,0,0,0,0,0,0,0,0,0,0,0,0,0,0,0,0,0,0,0,0,0,0,0,0,0,0,0,0,0,0,0,0,0,0,0,0,0,0,0,0,0,0,0,0,0,0,0,0,0,0,0,0,0,0,0,0,0,0,0,0,0,0,0,0,0,0,0,0,0,0,0,0,0,0,0,0,0,0,0,0,0,0,0,0],"sum_hessian":[3.201E3,1.443E3,1.758E3,7.43E2,7E2,8.03E2,9.55E2,2.58E2,4.85E2,5.08E2,1.92E2,5.9E2,2.13E2,6.61E2,2.94E2,5.4E1,2.04E2,3.69E2,1.16E2,3.22E2,1.86E2,1.43E2,4.9E1,2.88E2,3.02E2,5.9E1,1.54E2,3.74E2,2.87E2,1.91E2,1.03E2,4.7E1,7E0,1.47E2,5.7E1,1.58E2,2.11E2,8.3E1,3.3E1,1.74E2,1.48E2,1.03E2,8.3E1,9.6E1,4.7E1,3E1,1.9E1,1.04E2,5E1,2.74E2,1.3E1,1.4E2,5.1E1,9.2E1,1.1E1,2.1E1,2.6E1,2E0,5E0,4.6E1,1.01E2,2.5E1,3.2E1,8.1E1,7.7E1,1.42E2,6.9E1,4.5E1,3.8E1,1.1E1,2.2E1,4.6E1,1.28E2,3.3E1,6.3E1,1.2E1,3.5E1,7.7E1,2.7E1,2.7E1,2.3E1,1.65E2,1.09E2,1E0,1.2E1,8.3E1,5.7E1,2.3E1,2.8E1,3.9E1,5.3E1,5E0,6E0],"tree_param":{"num_deleted":"0","num_feature":"7","num_nodes":"93","size_leaf_vector":"1"}},{"base_weights":[2.9382439E0,1.9271395E3,-1.5735966E3,5.224443E2,3.4278218E3,-1.7764968E3,-1.0889854E3,-5.9141486E2,1.0584469E3,2.4568657E3,5.7143516E3,-1.9938517E3,-1.4895831E3,-1.4347622E3,-6.4030676E2,-1.3234246E3,-1.9636932E2,5.703201E2,2.5338848E3,2.0099062E3,3.7922605E3,4.3600557E3,6.802349E3,-2.1380063E3,-1.830463E2,-1.5692783E3,-1.2448601E3,-1.7696381E3,-1.2556732E3,-8.6961224E2,-2.4160556E2,-1.799257E2,-9.709235E2,-3.8243826E2,1.4905242E3,1.6457098E2,9.1588855E2,1.8518853E3,3.043286E3,1.6046633E3,2.4021643E3,3.4427488E3,4.5315738E2,3.7328044E3,5.5946735E2,5.809386E3,8.122331E2,-2.3067972E2,-2.0548247E2,-1.9205829E2,-1.5398781E2,-1.2760433E2,-8.492635E1,-1.899734E2,-1.5360918E2,-1.4014131E3,-9.35465E2,-1.0535171E3,-6.6309845E2,-3.7275043E2,5.8725494E2,-1.19817116E2,-2.8475677E1,-5.2219734E1,2.719375E1,5.206631E1,1.6742873E2,-8.496246E-1,3.6306873E1,1.0397738E1,9.613888E1,1.5037146E2,2.562176E2,2.607479E2,3.8756155E2,7.976894E1,1.6366301E2,1.1634741E2,2.4585753E2,1.15454834E2,3.483006E2,1.464332E2,3.780814E2,4.966403E2,6.506299E2,-1.5567213E2,-1.27026146E2,-9.9938736E1,-5.7518623E1,-1.1382863E2,-8.2595406E1,-7.363103E1,-4.239761E1,-6.275533E1,-2.796432E1,9.302102E1,2.093997E1],"categories":[],"categories_nodes":[],"categories_segments":[],"categories_sizes":[],"default_left":[0,0,0,0,0,0,0,0,0,0,0,0,0,0,0,0,0,0,0,0,0,0,0,0,0,0,0,0,0,0,0,0,0,0,0,0,0,0,0,0,0,0,0,0,0,0,0,0,0,0,0,0,0,0,0,0,0,0,0,0,0,0,0,0,0,0,0,0,0,0,0,0,0,0,0,0,0,0,0,0,0,0,0,0,0,0,0,0,0,0,0,0,0,0,0,0,0],"id":4,"left_children":[1,3,5,7,9,11,13,15,17,19,21,23,25,27,29,31,33,35,37,39,41,43,45,47,-1,49,51,53,55,57,59,-1,61,63,65,67,69,71,73,75,77,79,-1,81,-1,83,-1,-1,-1,-1,-1,-1,-1,-1,-1,85,87,89,91,93,95,-1,-1,-1,-1,-1,-1,-1,-1,-1,-1,-1,-1,-1,-1,-1,-1,-1,-1,-1,-1,-1,-1,-1,-1,-1,-1,-1,-1,-1,-1,-1,-1,-1,-1,-1,-1],"loss_changes":[9.713491E9,3.037947E9,1.7112218E8,4.4601146E8,1.5333847E9,7.429632E7,8.006579E7,7.0010184E7,3.6153594E8,2.8544E8,2.7535E8,1.26208E7,8.539264E6,1.5409792E7,2.072608E7,1.2510224E7,5.047671E7,5.3130624E7,3.779059E7,5.4960384E7,1.5923712E7,5.2685696E7,1.0092186E8,4.12544E5,0E0,1.19456E6,6.0632E5,1.20192E5,7.78912E6,4.808352E6,9.458467E6,0E0,7.611228E6,1.3311518E7,1.979852E6,6.0492925E6,7.473184E6,9.996144E6,1.5285888E7,3.466816E6,1.0136448E7,3.992832E6,0E0,1.651584E6,0E0,7.636224E6,0E0,0E0,0E0,0E0,0E0,0E0,0E0,0E0,0E0,7.11248E5,8.99076E5,5.066E5,9.30792E5,1.580085E6,1.3602635E6,0E0,0E0,0E0,0E0,0E0,0E0,0E0,0E0,0E0,0E0,0E0,0E0,0E0,0E0,0E0,0E0,0E0,0E0,0E0,0E0,0E0,0E0,0E0,0E0,0E0,0E0,0E0,0E0,0E0,0E0,0E0,0E0,0E0,0E0,0E0,0E0],"parents":[2147483647,0,0,1,1,2,2,3,3,4,4,5,5,6,6,7,7,8,8,9,9,10,10,11,11,12,12,13,13,14,14,15,15,16,16,17,17,18,18,19,19,20,20,21,21,22,22,23,23,25,25,26,26,27,27,28,28,29,29,30,30,32,32,33,33,34,34,35,35,36,36,37,37,38,38,39,39,40,40,41,41,43,43,45,45,55,55,56,56,57,57,58,58,59,59,60,60],"right_children":[2,4,6,8,10,12,14,16,18,20,22,24,26,28,30,32,34,36,38,40,42,44,46,48,-1,50,52,54,56,58,60,-1,62,64,66,68,70,72,74,76,78,80,-1,82,-1,84,-1,-1,-1,-1,-1,-1,-1,-1,-1,86,88,90,92,94,96,-1,-1,-1,-1,-1,-1,-1,-1,-1,-1,-1,-1,-1,-1,-1,-1,-1,-1,-1,-1,-1,-1,-1,-1,-1,-1,-1,-1,-1,-1,-1,-1,-1,-1,-1,-1],"split_conditions":[1E0,4.0118E4,1E0,2.4743E4,1E0,4.2361E4,4.2479E4,1.6158E4,1E0,5.8508E4,5.0112E4,3.0838E4,5.97E4,2.7544E4,2E0,9.446E3,2E0,3.2246E4,3.121E4,4.7786E4,6.967E4,2E0,2E0,1.9058E4,-1.830463E2,1E0,7.4244E4,2.1662E4,2E0,5.2416E4,6.486E4,-1.799257E2,1E0,1E0,1.8113E4,2.8713E4,1E0,2E0,2E0,1E0,1E0,1E0,4.5315738E2,1E0,5.5946735E2,5.7865E4,8.122331E2,-2.3067972E2,-2.0548247E2,-1.9205829E2,-1.5398781E2,-1.2760433E2,-8.492635E1,-1.899734E2,-1.5360918E2,3.5401E4,4.027E4,4E0,6.4267E4,4.5677E4,2E0,-1.19817116E2,-2.8475677E1,-5.2219734E1,2.719375E1,5.206631E1,1.6742873E2,-8.496246E-1,3.6306873E1,1.0397738E1,9.613888E1,1.5037146E2,2.562176E2,2.607479E2,3.8756155E2,7.976894E1,1.6366301E2,1.1634741E2,2.4585753E2,1.15454834E2,3.483006E2,1.464332E2,3.780814E2,4.966403E2,6.506299E2,-1.5567213E2,-1.27026146E2,-9.9938736E1,-5.7518623E1,-1.1382863E2,-8.2595406E1,-7.363103E1,-4.239761E1,-6.275533E1,-2.796432E1,9.302102E1,2.093997E1],"split_indices":[3,5,2,5,2,5,5,5,2,5,5,5,5,5,2,5,2,5,5,5,5,2,2,5,0,0,5,5,2,5,5,0,2,2,5,5,0,2,2,0,0,0,0,0,0,5,0,0,0,0,0,0,0,0,0,5,5,0,5,5,0,0,0,0,0,0,0,0,0,0,0,0,0,0,0,0,0,0,0,0,0,0,0,0,0,0,0,0,0,0,0,0,0,0,0,0,0],"split_type":[0,0,0,0,0,0,0,0,0,0,0,0,0,0,0,0,0,0,0,0,0,0,0,0,0,0,0,0,0,0,0,0,0,0,0,0,0,0,0,0,0,0,0,0,0,0,0,0,0,0,0,0,0,0,0,0,0,0,0,0,0,0,0,0,0,0,0,0,0,0,0,0,0,0,0,0,0,0,0,0,0,0,0,0,0,0,0,0,0,0,0,0,0,0,0,0,0],"sum_hessian":[3.2E3,1.441E3,1.759E3,7.45E2,6.96E2,1.238E3,5.21E2,2.42E2,5.03E2,4.9E2,2.06E2,7.01E2,5.37E2,2.93E2,2.28E2,8.4E1,1.58E2,3.79E2,1.24E2,3.69E2,1.21E2,9.4E1,1.12E2,3.66E2,3.35E2,4.01E2,1.36E2,9.9E1,1.94E2,1.44E2,8.4E1,3.4E1,5E1,1.43E2,1.5E1,1.75E2,2.04E2,5.5E1,6.9E1,1.84E2,1.85E2,8.6E1,3.5E1,6.5E1,2.9E1,6.7E1,4.5E1,1.12E2,2.54E2,2.6E1,3.75E2,1.24E2,1.2E1,5.9E1,4E1,1.31E2,6.3E1,7.4E1,7E1,7.3E1,1.1E1,3.7E1,1.3E1,1.18E2,2.5E1,3E0,1.2E1,9.4E1,8.1E1,1.1E1,1.93E2,3.9E1,1.6E1,4.8E1,2.1E1,8E0,1.76E2,9E0,1.76E2,2E0,8.4E1,2E0,6.3E1,3.4E1,3.3E1,5.5E1,7.6E1,5.2E1,1.1E1,5.1E1,2.3E1,5.2E1,1.8E1,1.8E1,5.5E1,5E0,6E0],"tree_param":{"num_deleted":"0","num_feature":"7","num_nodes":"97","size_leaf_vector":"1"}},{"base_weights":[1.182738E1,1.7332893E3,-1.4201138E3,1.12441E3,3.3536323E3,-1.6017225E3,-9.715189E2,2.2447774E2,1.172398E3,2.7621184E3,4.472857E3,-1.964299E2,-1.5781619E3,-1.1477457E3,-6.549686E2,6.4250355E0,3.2185855E2,1.0910858E3,1.3974176E2,3.1197754E3,2.4353843E3,4.927276E3,3.9006873E3,-1.4549236E2,-1.6061073E3,-1.2262666E3,-9.417395E1,-7.029334E2,-3.7436626E1,5.100303E1,-4.381996E1,4.1783203E1,1.9200845E2,1.1964669E3,9.298936E2,1.7579232E3,3.2660703E3,2.1630754E2,2.7425164E3,3.6485883E2,5.285939E2,6.975921E1,3.9398358E2,-1.6445004E3,-1.5200577E2,-1.0873981E3,-1.408327E3,-5.931652E2,-8.259915E2,-2.5422338E1,1.1316412E1,3.4686475E0,-1.135624E1,5.293799E0,2.7569529E1,9.342728E1,1.23392876E2,7.094576E1,1.0975582E2,2.1077847E2,9.401439E1,3.5583212E2,2.8355933E2,2.0692068E2,3.1900204E2,-1.5506863E2,-1.7093536E2,-7.953478E1,-1.14600975E2,-1.0949426E2,-1.4612346E2,-1.07774925E2,-5.077229E1,-6.057433E1,-8.7416985E1],"categories":[],"categories_nodes":[],"categories_segments":[],"categories_sizes":[],"default_left":[0,0,0,0,0,0,0,0,0,0,0,0,0,0,0,0,0,0,0,0,0,0,0,0,0,0,0,0,0,0,0,0,0,0,0,0,0,0,0,0,0,0,0,0,0,0,0,0,0,0,0,0,0,0,0,0,0,0,0,0,0,0,0,0,0,0,0,0,0,0,0,0,0,0,0],"id":5,"left_children":[1,3,5,7,9,11,13,15,17,19,21,-1,23,25,27,29,31,33,-1,35,37,39,41,-1,43,45,-1,47,-1,49,51,-1,53,55,57,59,61,-1,63,-1,-1,-1,-1,65,-1,67,69,71,73,-1,-1,-1,-1,-1,-1,-1,-1,-1,-1,-1,-1,-1,-1,-1,-1,-1,-1,-1,-1,-1,-1,-1,-1,-1,-1],"loss_changes":[7.9201444E9,1.4356685E9,1.4134016E8,4.5600256E7,2.51136E8,7.552512E6,2.758688E7,1.1658102E6,1.6918528E7,2.3136128E7,1.6141056E7,0E0,1.713408E6,4.102304E6,2.213304E6,4.255173E4,3.93335E5,1.1542528E7,0E0,1.8564864E7,5.943808E6,1.3734272E7,5.402368E6,0E0,6.35392E5,4.334144E6,0E0,1.61728E6,0E0,2.1850103E5,5.3216152E4,0E0,1.9489588E5,3.237696E6,1.0272144E7,2.023912E6,3.623168E6,0E0,1.2381664E7,0E0,0E0,0E0,0E0,1.267584E6,0E0,1.416512E6,8.336E3,3.013544E6,2.23872E5,0E0,0E0,0E0,0E0,0E0,0E0,0E0,0E0,0E0,0E0,0E0,0E0,0E0,0E0,0E0,0E0,0E0,0E0,0E0,0E0,0E0,0E0,0E0,0E0,0E0,0E0],"parents":[2147483647,0,0,1,1,2,2,3,3,4,4,5,5,6,6,7,7,8,8,9,9,10,10,12,12,13,13,14,14,15,15,16,16,17,17,19,19,20,20,21,21,22,22,24,24,25,25,27,27,29,29,30,30,32,32,33,33,34,34,35,35,36,36,38,38,43,43,45,45,46,46,47,47,48,48],"right_children":[2,4,6,8,10,12,14,16,18,20,22,-1,24,26,28,30,32,34,-1,36,38,40,42,-1,44,46,-1,48,-1,50,52,-1,54,56,58,60,62,-1,64,-1,-1,-1,-1,66,-1,68,70,72,74,-1,-1,-1,-1,-1,-1,-1,-1,-1,-1,-1,-1,-1,-1,-1,-1,-1,-1,-1,-1,-1,-1,-1,-1,-1,-1],"split_conditions":[1E0,1E0,1E0,1E0,2E0,1E0,2E0,2E0,4E0,3E0,3E0,-1.964299E2,2E0,4E0,5E0,1.21E2,1.21E2,3E0,1.3974176E2,1E0,3E0,2E0,1E0,-1.4549236E2,4E0,3E0,-9.417395E1,3E0,-3.7436626E1,1E0,1E0,4.1783203E1,3E0,1E0,1.21E2,1.21E2,3E0,2.1630754E2,4E0,3.6485883E2,5.285939E2,6.975921E1,3.9398358E2,3E0,-1.5200577E2,1E0,1E0,1E0,1E0,-2.5422338E1,1.1316412E1,3.4686475E0,-1.135624E1,5.293799E0,2.7569529E1,9.342728E1,1.23392876E2,7.094576E1,1.0975582E2,2.1077847E2,9.401439E1,3.5583212E2,2.8355933E2,2.0692068E2,3.1900204E2,-1.5506863E2,-1.7093536E2,-7.953478E1,-1.14600975E2,-1.0949426E2,-1.4612346E2,-1.07774925E2,-5.077229E1,-6.057433E1,-8.7416985E1],"split_indices":[3,2,2,0,2,0,2,4,0,0,4,0,0,0,0,6,6,0,0,0,4,0,0,0,0,0,0,0,0,4,4,0,4,4,6,6,4,0,0,0,0,0,0,0,0,4,4,0,4,0,0,0,0,0,0,0,0,0,0,0,0,0,0,0,0,0,0,0,0,0,0,0,0,0,0],"split_type":[0,0,0,0,0,0,0,0,0,0,0,0,0,0,0,0,0,0,0,0,0,0,0,0,0,0,0,0,0,0,0,0,0,0,0,0,0,0,0,0,0,0,0,0,0,0,0,0,0,0,0,0,0,0,0,0,0,0,0,0,0,0,0,0,0,0,0,0,0,0,0,0,0,0,0],"sum_hessian":[3.211E3,1.458E3,1.753E3,1.061E3,3.97E2,1.246E3,5.07E2,5.4E1,1.007E3,2.62E2,1.35E2,7.1E1,1.175E3,3.24E2,1.83E2,1.7E1,3.7E1,7.44E2,2.63E2,1.21E2,1.41E2,7.1E1,6.4E1,2.27E2,9.48E2,2.31E2,9.3E1,1.55E2,2.8E1,9E0,8E0,2E1,1.7E1,4.46E2,2.98E2,1.3E1,1.08E2,7.9E1,6.2E1,1.8E1,5.3E1,1E0,6.3E1,6.43E2,3.05E2,1.35E2,9.6E1,8.5E1,7E1,1E0,8E0,4E0,4E0,7E0,1E1,5.9E1,3.87E2,1.31E2,1.67E2,8E0,5E0,6E1,4.8E1,2.7E1,3.5E1,2.73E2,3.7E2,2.5E1,1.1E2,1.7E1,7.9E1,1.1E1,7.4E1,1.5E1,5.5E1],"tree_param":{"num_deleted":"0","num_feature":"7","num_nodes":"75","size_leaf_vector":"1"}},{"base_weights":[7.6404915E0,1.5437776E3,-1.2754277E3,3.1226544E2,2.833989E3,-1.5807906E3,-1.0234627E3,-6.975461E2,8.382157E2,2.075101E3,4.8198066E3,-1.7365803E3,-1.4217714E3,-1.2317838E3,-5.761439E2,-1.5106471E3,-3.8172055E2,4.3098215E2,1.9833745E3,1.5597317E3,2.9384758E3,4.0265662E3,6.380555E3,-1.9950969E2,-1.66891E3,-1.535098E2,-1.123737E3,-1.3384991E3,-1.0363477E3,-7.604121E2,-2.47239E2,-1.8582492E2,-1.210981E3,-6.210411E2,3.1427838E2,1.1321533E2,7.8920575E2,1.3472253E3,2.4293857E3,1.214425E3,1.8093977E3,2.5496511E3,3.4690852E3,3.433346E3,5.026362E3,5.3599866E2,7.5805945E2,-1.7070486E2,-1.1778621E2,-1.2362152E2,-8.988062E1,-1.3893268E3,-1.18768005E2,-1.0904413E2,-8.7221356E2,-9.1706476E2,-4.4033258E2,-3.7180246E2,8.113932E2,-1.3019887E2,-4.6310528E1,-8.239748E1,-3.4349438E1,-2.0146341E1,6.0360332E1,-1.0483173E1,2.7523956E1,6.61863E1,9.75093E1,1.06706276E2,1.8638339E2,2.0735014E2,3.176317E2,1.0585363E2,1.357232E2,1.6158092E2,1.9740556E2,1.3780829E2,2.6250705E2,3.2544598E2,4.4804892E2,2.821445E2,4.0361285E2,2.1072696E2,5.109271E2,-1.4608652E2,-1.27553505E2,-9.190345E1,-6.2143806E1,-9.81639E1,-7.13745E1,-9.083422E1,-3.870803E1,-6.052209E1,-2.3680454E1,9.98985E1,4.573039E1],"categories":[],"categories_nodes":[],"categories_segments":[],"categories_sizes":[],"default_left":[0,0,0,0,0,0,0,0,0,0,0,0,0,0,0,0,0,0,0,0,0,0,0,0,0,0,0,0,0,0,0,0,0,0,0,0,0,0,0,0,0,0,0,0,0,0,0,0,0,0,0,0,0,0,0,0,0,0,0,0,0,0,0,0,0,0,0,0,0,0,0,0,0,0,0,0,0,0,0,0,0,0,0,0,0,0,0,0,0,0,0,0,0,0,0,0,0],"id":6,"left_children":[1,3,5,7,9,11,13,15,17,19,21,23,25,27,29,31,33,35,37,39,41,43,45,-1,47,-1,49,51,53,55,57,-1,59,61,63,65,67,69,71,73,75,77,79,81,83,-1,-1,-1,-1,-1,-1,85,-1,-1,87,89,91,93,95,-1,-1,-1,-1,-1,-1,-1,-1,-1,-1,-1,-1,-1,-1,-1,-1,-1,-1,-1,-1,-1,-1,-1,-1,-1,-1,-1,-1,-1,-1,-1,-1,-1,-1,-1,-1,-1,-1],"loss_changes":[6.279504E9,2.3030354E9,1.3195136E8,3.9519987E8,1.0569641E9,1.692864E7,8.818976E7,6.4906856E7,2.2718896E8,2.2412467E8,2.1572762E8,3.510528E6,1.1548544E7,1.216928E7,1.8297048E7,5.145392E6,3.1010044E7,4.111768E7,3.304448E7,2.5735104E7,3.0560896E7,6.103181E7,3.775027E7,0E0,3.907328E6,0E0,1.722464E6,1.54656E6,1.126496E6,9.373752E6,1.4938904E7,0E0,2.1876E6,7.489624E6,7.2840185E6,6.847333E6,3.37876E6,5.971552E6,1.3084672E7,1.657744E6,2.7392E6,6.45536E6,2.350144E6,2.03328E7,6.08256E5,0E0,0E0,0E0,0E0,0E0,0E0,6.27584E5,0E0,0E0,1.68596E5,1.006152E6,1.293288E6,3.007781E6,3.402515E5,0E0,0E0,0E0,0E0,0E0,0E0,0E0,0E0,0E0,0E0,0E0,0E0,0E0,0E0,0E0,0E0,0E0,0E0,0E0,0E0,0E0,0E0,0E0,0E0,0E0,0E0,0E0,0E0,0E0,0E0,0E0,0E0,0E0,0E0,0E0,0E0,0E0,0E0],"parents":[2147483647,0,0,1,1,2,2,3,3,4,4,5,5,6,6,7,7,8,8,9,9,10,10,11,11,12,12,13,13,14,14,15,15,16,16,17,17,18,18,19,19,20,20,21,21,22,22,24,24,26,26,27,27,28,28,29,29,30,30,32,32,33,33,34,34,35,35,36,36,37,37,38,38,39,39,40,40,41,41,42,42,43,43,44,44,51,51,54,54,55,55,56,56,57,57,58,58],"right_children":[2,4,6,8,10,12,14,16,18,20,22,24,26,28,30,32,34,36,38,40,42,44,46,-1,48,-1,50,52,54,56,58,-1,60,62,64,66,68,70,72,74,76,78,80,82,84,-1,-1,-1,-1,-1,-1,86,-1,-1,88,90,92,94,96,-1,-1,-1,-1,-1,-1,-1,-1,-1,-1,-1,-1,-1,-1,-1,-1,-1,-1,-1,-1,-1,-1,-1,-1,-1,-1,-1,-1,-1,-1,-1,-1,-1,-1,-1,-1,-1,-1],"split_conditions":[1E0,4.0118E4,3.8178E4,2.4743E4,1E0,2.7912E4,1E0,1.4202E4,1E0,5.4369E4,5.6195E4,1.3636E4,1E0,5.3562E4,2E0,6.743E3,1E0,3.4003E4,3.121E4,4.5677E4,6.3215E4,2E0,2E0,-1.9950969E2,2E0,-1.535098E2,2E0,4E0,6.486E4,5.2416E4,6.2064E4,-1.8582492E2,2E0,2.1662E4,1.9058E4,2.8713E4,3.7655E4,2E0,2E0,4.2905E4,4.9382E4,1E0,7.7303E4,4.7439E4,1E0,5.3599866E2,7.5805945E2,-1.7070486E2,-1.1778621E2,-1.2362152E2,-8.988062E1,4.7026E4,-1.18768005E2,-1.0904413E2,4E0,4E0,1E0,4.3995E4,2E0,-1.3019887E2,-4.6310528E1,-8.239748E1,-3.4349438E1,-2.0146341E1,6.0360332E1,-1.0483173E1,2.7523956E1,6.61863E1,9.75093E1,1.06706276E2,1.8638339E2,2.0735014E2,3.176317E2,1.0585363E2,1.357232E2,1.6158092E2,1.9740556E2,1.3780829E2,2.6250705E2,3.2544598E2,4.4804892E2,2.821445E2,4.0361285E2,2.1072696E2,5.109271E2,-1.4608652E2,-1.27553505E2,-9.190345E1,-6.2143806E1,-9.81639E1,-7.13745E1,-9.083422E1,-3.870803E1,-6.052209E1,-2.3680454E1,9.98985E1,4.573039E1],"split_indices":[3,5,5,5,2,5,2,5,2,5,5,5,2,5,2,5,2,5,5,5,5,2,2,0,2,0,2,0,5,5,5,0,2,5,5,5,5,2,2,5,5,0,5,5,0,0,0,0,0,0,0,5,0,0,0,0,0,5,0,0,0,0,0,0,0,0,0,0,0,0,0,0,0,0,0,0,0,0,0,0,0,0,0,0,0,0,0,0,0,0,0,0,0,0,0,0,0],"split_type":[0,0,0,0,0,0,0,0,0,0,0,0,0,0,0,0,0,0,0,0,0,0,0,0,0,0,0,0,0,0,0,0,0,0,0,0,0,0,0,0,0,0,0,0,0,0,0,0,0,0,0,0,0,0,0,0,0,0,0,0,0,0,0,0,0,0,0,0,0,0,0,0,0,0,0,0,0,0,0,0,0,0,0,0,0,0,0,0,0,0,0,0,0,0,0,0,0],"sum_hessian":[3.184E3,1.449E3,1.735E3,7.42E2,7.07E2,7.82E2,9.53E2,2.54E2,4.88E2,5.13E2,1.94E2,3.9E2,3.92E2,6.49E2,3.04E2,7E1,1.84E2,3.61E2,1.27E2,3.23E2,1.9E2,1.31E2,6.3E1,7.5E1,3.15E2,2.81E2,1.11E2,4.16E2,2.33E2,1.94E2,1.1E2,3E1,4E1,1.37E2,4.7E1,1.92E2,1.69E2,5.4E1,7.3E1,1.38E2,1.85E2,1.13E2,7.7E1,8.5E1,4.6E1,3.7E1,2.6E1,2.9E2,2.5E1,7.1E1,4E1,3.05E2,1.11E2,1.71E2,6.2E1,1.29E2,6.5E1,9.9E1,1.1E1,3.5E1,5E0,7.8E1,5.9E1,1.7E1,3E1,8.2E1,1.1E2,1.03E2,6.6E1,3.7E1,1.7E1,5.2E1,2.1E1,7E1,6.8E1,9E1,9.5E1,8E0,1.05E2,6.7E1,1E1,4.5E1,4E1,2E0,4.4E1,1.8E2,1.25E2,5E1,1.2E1,9.5E1,3.4E1,5E0,6E1,3.5E1,6.4E1,6E0,5E0],"tree_param":{"num_deleted":"0","num_feature":"7","num_nodes":"97","size_leaf_vector":"1"}},{"base_weights":[-5.3825436E0,1.4133608E3,-1.1484768E3,3.413312E2,2.6027817E3,-1.4597494E3,-9.584971E2,-6.220625E2,7.8889215E2,1.9415826E3,3.4382366E3,-1.6790504E2,-1.3766115E3,-1.0905576E3,-7.810558E2,-1.3315836E3,-3.2382822E2,2.706263E2,1.0260941E3,1.7256592E3,2.2317407E3,3.0302817E3,3.9700945E3,-1.4302321E2,-1.2721958E2,-1.1402983E3,-9.4075165E2,-8.334355E2,-5.5525336E2,-1.6067775E2,-1.0194015E2,-6.3770074E2,-1.1549014E2,2.0939514E2,4.9032422E2,7.998712E2,1.2788427E3,1.6360221E3,1.959578E2,2.4920107E3,1.9665917E3,1.7240143E3,3.1164E2,2.2211125E2,4.0384646E3,-1.0754891E3,-1.2441432E3,-9.575101E2,-6.2061084E2,-8.7801135E2,-6.74817E1,-1.0148538E2,-5.1189178E2,-7.124214E1,-5.3686306E1,-4.6261196E1,-6.9458404E0,-2.270075E1,2.3234211E1,2.6746305E1,5.5718147E1,-1.2217113E1,8.4639366E1,3.3620724E1,1.3120903E2,1.6508958E2,8.2096E1,8.260105E1,2.548389E2,2.509239E2,1.8318924E2,3.7326E1,1.8054723E2,3.8452478E2,4.9943057E2,-1.391201E2,-1.02257805E2,-1.11145805E2,-1.3261032E2,-7.328347E1,-9.894042E1,-1.2925074E1,-6.568218E1,-8.06793E1,-9.858833E1,-2.6076157E1,-5.9806732E1],"categories":[],"categories_nodes":[],"categories_segments":[],"categories_sizes":[],"default_left":[0,0,0,0,0,0,0,0,0,0,0,0,0,0,0,0,0,0,0,0,0,0,0,0,0,0,0,0,0,0,0,0,0,0,0,0,0,0,0,0,0,0,0,0,0,0,0,0,0,0,0,0,0,0,0,0,0,0,0,0,0,0,0,0,0,0,0,0,0,0,0,0,0,0,0,0,0,0,0,0,0,0,0,0,0,0,0],"id":7,"left_children":[1,3,5,7,9,11,13,15,17,19,21,-1,23,25,27,29,31,33,35,37,39,41,43,-1,-1,45,47,49,51,-1,-1,53,55,57,59,61,63,65,-1,67,69,71,-1,-1,73,75,77,79,81,83,-1,-1,85,-1,-1,-1,-1,-1,-1,-1,-1,-1,-1,-1,-1,-1,-1,-1,-1,-1,-1,-1,-1,-1,-1,-1,-1,-1,-1,-1,-1,-1,-1,-1,-1,-1,-1],"loss_changes":[5.230169E9,1.8339727E9,1.0421658E8,3.273232E8,3.7006234E8,9.995264E6,2.520576E7,5.0565256E7,6.3401984E7,2.014464E7,5.306163E7,0E0,9.51872E5,3.659008E6,5.190784E6,4.461704E6,1.1108316E7,2.103515E6,1.9275072E7,1.49088E6,6.140864E6,1.4201344E7,6.216576E6,0E0,0E0,1.838464E6,2.85632E5,2.13672E6,1.3339E6,0E0,0E0,1.29884E5,1.6296442E6,1.3545785E6,3.72471E5,8.25356E6,4.761344E6,6.81376E5,0E0,5.127328E6,1.543264E6,7.56476E5,0E0,0E0,3.142528E6,3.55536E6,4.29216E5,3.78464E5,1.10824E5,1.493984E6,0E0,0E0,1.726838E6,0E0,0E0,0E0,0E0,0E0,0E0,0E0,0E0,0E0,0E0,0E0,0E0,0E0,0E0,0E0,0E0,0E0,0E0,0E0,0E0,0E0,0E0,0E0,0E0,0E0,0E0,0E0,0E0,0E0,0E0,0E0,0E0,0E0,0E0],"parents":[2147483647,0,0,1,1,2,2,3,3,4,4,5,5,6,6,7,7,8,8,9,9,10,10,12,12,13,13,14,14,15,15,16,16,17,17,18,18,19,19,20,20,21,21,22,22,25,25,26,26,27,27,28,28,31,31,32,32,33,33,34,34,35,35,36,36,37,37,39,39,40,40,41,41,44,44,45,45,46,46,47,47,48,48,49,49,52,52],"right_children":[2,4,6,8,10,12,14,16,18,20,22,-1,24,26,28,30,32,34,36,38,40,42,44,-1,-1,46,48,50,52,-1,-1,54,56,58,60,62,64,66,-1,68,70,72,-1,-1,74,76,78,80,82,84,-1,-1,86,-1,-1,-1,-1,-1,-1,-1,-1,-1,-1,-1,-1,-1,-1,-1,-1,-1,-1,-1,-1,-1,-1,-1,-1,-1,-1,-1,-1,-1,-1,-1,-1,-1,-1],"split_conditions":[1E0,4.0892E4,3.5401E4,2.4743E4,5.2775E4,2.0012E4,4.952E4,1.4202E4,3.05E4,4.7026E4,6.1904E4,-1.6790504E2,3.1067E4,4E0,6.5237E4,9.446E3,1.9738E4,2.9045E4,3.6461E4,4E0,3E0,1E0,1E0,-1.4302321E2,-1.2721958E2,3E0,4.8226E4,4E0,1E0,-1.6067775E2,-1.0194015E2,1.7713E4,1E0,1E0,3E0,1E0,1E0,4.6869E4,1.959578E2,1E0,4.7941E4,5.3344E4,3.1164E2,2.2211125E2,7.4244E4,1E0,2E0,1E0,4.8561E4,3E0,-6.74817E1,-1.0148538E2,2E0,-7.124214E1,-5.3686306E1,-4.6261196E1,-6.9458404E0,-2.270075E1,2.3234211E1,2.6746305E1,5.5718147E1,-1.2217113E1,8.4639366E1,3.3620724E1,1.3120903E2,1.6508958E2,8.2096E1,8.260105E1,2.548389E2,2.509239E2,1.8318924E2,3.7326E1,1.8054723E2,3.8452478E2,4.9943057E2,-1.391201E2,-1.02257805E2,-1.11145805E2,-1.3261032E2,-7.328347E1,-9.894042E1,-1.2925074E1,-6.568218E1,-8.06793E1,-9.858833E1,-2.6076157E1,-5.9806732E1],"split_indices":[3,5,5,5,5,5,5,5,5,5,5,0,5,0,5,5,5,5,5,0,4,0,0,0,0,0,5,0,0,0,0,5,0,0,0,0,0,5,0,0,5,5,0,0,5,0,4,4,5,0,0,0,0,0,0,0,0,0,0,0,0,0,0,0,0,0,0,0,0,0,0,0,0,0,0,0,0,0,0,0,0,0,0,0,0,0,0],"split_type":[0,0,0,0,0,0,0,0,0,0,0,0,0,0,0,0,0,0,0,0,0,0,0,0,0,0,0,0,0,0,0,0,0,0,0,0,0,0,0,0,0,0,0,0,0,0,0,0,0,0,0,0,0,0,0,0,0,0,0,0,0,0,0,0,0,0,0,0,0,0,0,0,0,0,0,0,0,0,0,0,0,0,0,0,0,0,0],"sum_hessian":[3.223E3,1.438E3,1.785E3,7.57E2,6.81E2,6.74E2,1.111E3,2.4E2,5.17E2,3.82E2,2.99E2,1.8E2,4.94E2,6.34E2,4.77E2,7E1,1.7E2,1.63E2,3.54E2,2.23E2,1.59E2,1.73E2,1.26E2,3.18E2,1.76E2,4.71E2,1.63E2,3.85E2,9.2E1,3.5E1,3.5E1,6.7E1,1.03E2,1.29E2,3.4E1,1.89E2,1.65E2,1.67E2,5.6E1,7.6E1,8.3E1,1.2E1,1.61E2,6E0,1.2E2,2.97E2,1.74E2,1.53E2,1E1,2.97E2,8.8E1,6E0,8.6E1,3.5E1,3.2E1,1.1E1,9.2E1,6E0,1.23E2,9E0,2.5E1,9E0,1.8E2,6E0,1.59E2,1.63E2,4E0,3E0,7.3E1,1.3E1,7E1,1E0,1.1E1,1.04E2,1.6E1,3.9E1,2.58E2,7.2E1,1.02E2,2.2E1,1.31E2,1E0,9E0,1.84E2,1.13E2,2.3E1,6.3E1],"tree_param":{"num_deleted":"0","num_feature":"7","num_nodes":"87","size_leaf_vector":"1"}},{"base_weights":[-4.053486E0,1.2396859E3,-1.0405006E3,2.734766E2,2.3485837E3,-1.1861144E3,-6.798644E2,-4.229939E2,7.806534E2,1.6726443E3,4.0042085E3,-1.3468378E3,-9.7747314E2,-9.456542E2,-3.4668112E2,-9.42683E2,-6.91488E1,4.0777957E2,1.8389401E3,1.3132616E3,2.578566E3,3.4175566E3,5.616632E3,-1.4548772E3,-1.22822624E2,-1.0628302E3,-8.502146E2,-1.148319E3,-7.622276E2,-5.260202E2,-4.0890976E1,-1.3583466E3,-7.025159E2,-3.3077686E2,6.717833E2,1.321019E2,6.308722E2,1.3735094E3,2.3129358E3,1.0578317E3,1.5932417E3,2.3665833E3,3.4780438E2,2.9571726E3,4.395379E3,4.628917E3,6.61781E2,-1.6536736E2,-1.4051323E2,-1.09990715E2,-9.474327E1,-1.2134911E2,-8.276739E2,-1.3002171E2,-1.0116931E3,-8.8046936E2,-4.9812286E2,-6.238483E2,-1.8102194E2,-1.3436037E2,6.001177E2,-1.4581844E2,-9.373177E1,-8.676803E1,-2.816428E1,-4.7175488E1,-1.964883E1,3.6141335E1,1.2379592E2,-2.9433172E1,1.642052E1,8.815249E0,6.579701E1,1.1751586E2,1.9166649E2,1.9436784E2,3.0674426E2,8.187173E1,1.1397213E2,7.990478E1,1.6339384E2,1.2363039E2,2.4179292E2,2.4652025E2,3.5131964E2,3.0681284E2,4.6869327E2,1.9288132E2,4.7574875E2,-8.850439E1,-6.961927E1,-1.10949486E2,-8.2167336E1,-6.3886974E1,-9.1439125E1,-5.2212006E1,-2.7955103E1,-6.7872894E1,-4.7959717E1,-2.8900272E1,-1.3833531E0,-2.9243444E1,-7.5506034E0,9.1616455E1,1.8405119E1],"categories":[],"categories_nodes":[],"categories_segments":[],"categories_sizes":[],"default_left":[0,0,0,0,0,0,0,0,0,0,0,0,0,0,0,0,0,0,0,0,0,0,0,0,0,0,0,0,0,0,0,0,0,0,0,0,0,0,0,0,0,0,0,0,0,0,0,0,0,0,0,0,0,0,0,0,0,0,0,0,0,0,0,0,0,0,0,0,0,0,0,0,0,0,0,0,0,0,0,0,0,0,0,0,0,0,0,0,0,0,0,0,0,0,0,0,0,0,0,0,0,0,0,0,0],"id":8,"left_children":[1,3,5,7,9,11,13,15,17,19,21,23,25,27,29,31,33,35,37,39,41,43,45,47,-1,49,51,53,55,57,59,61,63,65,67,69,71,73,75,77,79,81,-1,83,85,87,-1,-1,-1,-1,-1,-1,89,-1,91,93,95,97,99,101,103,-1,-1,-1,-1,-1,-1,-1,-1,-1,-1,-1,-1,-1,-1,-1,-1,-1,-1,-1,-1,-1,-1,-1,-1,-1,-1,-1,-1,-1,-1,-1,-1,-1,-1,-1,-1,-1,-1,-1,-1,-1,-1,-1,-1],"loss_changes":[4.1546737E9,1.5689992E9,9.151258E7,2.772654E8,7.565302E8,4.0633856E7,4.465896E7,6.0802224E7,1.7840186E8,1.5484186E8,1.6715315E8,7.234688E6,5.04896E6,9.607808E6,1.24272E7,1.2422776E7,3.8604236E7,2.0642716E7,2.2855424E7,2.3345024E7,1.78912E7,5.31776E7,1.9799552E7,1.266176E6,0E0,3.44128E5,8.38048E5,1.424016E6,4.27688E6,4.713396E6,5.1733805E6,6.50888E5,5.803272E6,2.690271E6,8.690234E6,2.1291995E6,2.677424E6,4.427208E6,9.918464E6,2.708976E6,4.02736E6,3.626752E6,0E0,1.9514624E7,3.03328E6,8.91072E5,0E0,0E0,0E0,0E0,0E0,0E0,1.0056E6,0E0,4.63592E5,2.5996E5,1.11051E5,5.53224E5,5.917556E5,6.756701E5,1.2778405E6,0E0,0E0,0E0,0E0,0E0,0E0,0E0,0E0,0E0,0E0,0E0,0E0,0E0,0E0,0E0,0E0,0E0,0E0,0E0,0E0,0E0,0E0,0E0,0E0,0E0,0E0,0E0,0E0,0E0,0E0,0E0,0E0,0E0,0E0,0E0,0E0,0E0,0E0,0E0,0E0,0E0,0E0,0E0,0E0],"parents":[2147483647,0,0,1,1,2,2,3,3,4,4,5,5,6,6,7,7,8,8,9,9,10,10,11,11,12,12,13,13,14,14,15,15,16,16,17,17,18,18,19,19,20,20,21,21,22,22,23,23,25,25,26,26,27,27,28,28,29,29,30,30,31,31,32,32,33,33,34,34,35,35,36,36,37,37,38,38,39,39,40,40,41,41,43,43,44,44,45,45,52,52,54,54,55,55,56,56,57,57,58,58,59,59,60,60],"right_children":[2,4,6,8,10,12,14,16,18,20,22,24,26,28,30,32,34,36,38,40,42,44,46,48,-1,50,52,54,56,58,60,62,64,66,68,70,72,74,76,78,80,82,-1,84,86,88,-1,-1,-1,-1,-1,-1,90,-1,92,94,96,98,100,102,104,-1,-1,-1,-1,-1,-1,-1,-1,-1,-1,-1,-1,-1,-1,-1,-1,-1,-1,-1,-1,-1,-1,-1,-1,-1,-1,-1,-1,-1,-1,-1,-1,-1,-1,-1,-1,-1,-1,-1,-1,-1,-1,-1,-1],"split_conditions":[1E0,4.0892E4,1E0,2.7041E4,1E0,4.2479E4,4.2479E4,1.8716E4,1E0,5.8508E4,5.8218E4,3.0838E4,5.4369E4,3.1067E4,2E0,1.1626E4,1E0,3.4344E4,3.4178E4,4.8561E4,7.2213E4,2E0,2E0,1.4202E4,-1.22822624E2,4E0,1E0,2.2612E4,2E0,5.9399E4,6.486E4,1E0,1E0,2.3474E4,2E0,1E0,1E0,2E0,2E0,4.2905E4,1E0,1E0,3.4780438E2,4.8387E4,4.3364E4,1E0,6.61781E2,-1.6536736E2,-1.4051323E2,-1.09990715E2,-9.474327E1,-1.2134911E2,6.486E4,-1.3002171E2,2E0,1E0,4.1098E4,4E0,6.4267E4,4.5493E4,2E0,-1.4581844E2,-9.373177E1,-8.676803E1,-2.816428E1,-4.7175488E1,-1.964883E1,3.6141335E1,1.2379592E2,-2.9433172E1,1.642052E1,8.815249E0,6.579701E1,1.1751586E2,1.9166649E2,1.9436784E2,3.0674426E2,8.187173E1,1.1397213E2,7.990478E1,1.6339384E2,1.2363039E2,2.4179292E2,2.4652025E2,3.5131964E2,3.0681284E2,4.6869327E2,1.9288132E2,4.7574875E2,-8.850439E1,-6.961927E1,-1.10949486E2,-8.2167336E1,-6.3886974E1,-9.1439125E1,-5.2212006E1,-2.7955103E1,-6.7872894E1,-4.7959717E1,-2.8900272E1,-1.3833531E0,-2.9243444E1,-7.5506034E0,9.1616455E1,1.8405119E1],"split_indices":[3,5,2,5,2,5,5,5,2,5,5,5,5,5,2,5,2,5,5,5,5,2,2,5,0,0,0,5,2,5,5,2,2,5,2,0,0,2,2,5,0,0,0,5,5,0,0,0,0,0,0,0,5,0,2,4,5,0,5,5,0,0,0,0,0,0,0,0,0,0,0,0,0,0,0,0,0,0,0,0,0,0,0,0,0,0,0,0,0,0,0,0,0,0,0,0,0,0,0,0,0,0,0,0,0],"split_type":[0,0,0,0,0,0,0,0,0,0,0,0,0,0,0,0,0,0,0,0,0,0,0,0,0,0,0,0,0,0,0,0,0,0,0,0,0,0,0,0,0,0,0,0,0,0,0,0,0,0,0,0,0,0,0,0,0,0,0,0,0,0,0,0,0,0,0,0,0,0,0,0,0,0,0,0,0,0,0,0,0,0,0,0,0,0,0,0,0,0,0,0,0,0,0,0,0,0,0,0,0,0,0,0,0],"sum_hessian":[3.221E3,1.464E3,1.757E3,7.83E2,6.81E2,1.25E3,5.07E2,3.3E2,4.53E2,4.85E2,1.96E2,7.03E2,5.47E2,2.81E2,2.26E2,1.33E2,1.97E2,3.36E2,1.17E2,3.49E2,1.36E2,1.46E2,5E1,3.62E2,3.41E2,3.23E2,2.24E2,1.31E2,1.5E2,1.42E2,8.4E1,4.7E1,8.6E1,1.46E2,5.1E1,1.51E2,1.85E2,6.1E1,5.6E1,1.85E2,1.64E2,1.13E2,2.3E1,1.02E2,4.4E1,2.8E1,2.2E1,6.6E1,2.96E2,2.38E2,8.5E1,1E1,2.14E2,5.8E1,7.3E1,1.02E2,4.8E1,1.1E2,3.2E1,7.4E1,1E1,3.6E1,1.1E1,6.1E1,2.5E1,7E1,7.6E1,3.4E1,1.7E1,1E1,1.41E2,9E0,1.76E2,4.7E1,1.4E1,4E1,1.6E1,5E1,1.35E2,9E0,1.55E2,6E0,1.07E2,5.7E1,4.5E1,1E1,3.4E1,2E0,2.6E1,1.45E2,6.9E1,4.5E1,2.8E1,1.5E1,8.7E1,4.2E1,6E0,7.7E1,3.3E1,1.9E1,1.3E1,1.9E1,5.5E1,5E0,5E0],"tree_param":{"num_deleted":"0","num_feature":"7","num_nodes":"105","size_leaf_vector":"1"}},{"base_weights":[-1.6670832E1,1.1277343E3,-9.381473E2,1.823611E2,2.0808616E3,-1.1573475E3,-7.5163696E2,-5.046374E2,5.619755E2,1.4819893E3,3.5840764E3,-1.2342933E3,-9.505415E2,-9.174866E2,-3.8713577E2,-1.117883E3,-2.711329E2,2.3823663E2,1.4903828E3,1.1384172E3,2.2358616E3,3.0404082E3,4.872079E3,-1.3878673E2,-1.169925E3,-1.1983423E2,-8.525757E2,-9.974704E2,-7.7528436E2,-5.3063776E2,-1.2199538E2,-1.345001E2,-9.028661E2,-4.7444638E2,2.619142E2,-8.94774E0,4.840359E2,9.905282E2,1.7809629E3,9.3053485E2,1.389364E2,2.1333513E3,3.891257E2,2.5935466E3,3.9970587E2,4.1585114E2,5.9312933E2,-1.2245265E2,-1.0824255E2,-9.318545E2,-6.8304065E2,-1.0438397E2,-9.293462E1,-7.879113E2,-4.0481082E2,-6.0723755E2,-2.086685E2,-2.2598085E2,5.3084753E2,-9.747173E1,-3.452316E1,-6.181675E1,-2.4741713E1,2.7082424E0,7.437984E1,-2.0945892E1,6.591713E0,4.0015022E1,6.462588E1,7.110638E1,1.4700827E2,1.557849E2,2.344827E2,7.750062E1,1.0342438E2,1.8409949E2,2.3632768E2,1.9275E2,2.8884296E2,-9.9306755E1,-7.2874695E1,-4.0639057E1,-7.273696E1,-8.304353E1,-7.0156784E1,-1.6819044E1,-6.077931E1,-6.93228E1,-4.844967E1,-5.447229E0,-2.4069668E1,-3.3496918E1,-1.255515E1,3.911688E1,8.17172E1],"categories":[],"categories_nodes":[],"categories_segments":[],"categories_sizes":[],"default_left":[0,0,0,0,0,0,0,0,0,0,0,0,0,0,0,0,0,0,0,0,0,0,0,0,0,0,0,0,0,0,0,0,0,0,0,0,0,0,0,0,0,0,0,0,0,0,0,0,0,0,0,0,0,0,0,0,0,0,0,0,0,0,0,0,0,0,0,0,0,0,0,0,0,0,0,0,0,0,0,0,0,0,0,0,0,0,0,0,0,0,0,0,0,0,0],"id":9,"left_children":[1,3,5,7,9,11,13,15,17,19,21,23,25,27,29,31,33,35,37,39,41,43,45,-1,47,-1,49,51,53,55,57,-1,59,61,63,65,67,69,71,73,-1,75,-1,77,-1,-1,-1,-1,-1,79,81,-1,-1,83,85,87,89,91,93,-1,-1,-1,-1,-1,-1,-1,-1,-1,-1,-1,-1,-1,-1,-1,-1,-1,-1,-1,-1,-1,-1,-1,-1,-1,-1,-1,-1,-1,-1,-1,-1,-1,-1,-1,-1],"loss_changes":[3.3618842E9,1.2809294E9,7.132954E7,1.867517E8,6.3205376E8,1.1716096E7,5.749773E7,3.6211788E7,1.3820379E8,1.2903155E8,1.2593638E8,4.179008E6,4.41616E6,6.699328E6,1.1387764E7,2.20404E6,2.0282136E7,2.084424E7,1.55204E7,1.7017856E7,1.8510336E7,5.1192064E7,1.917248E7,0E0,6.81152E5,0E0,1.567752E6,3.47168E5,8.08432E5,4.682532E6,7.383783E6,0E0,1.2261E6,4.251954E6,5.864265E6,2.5957408E6,2.082004E6,5.119524E6,5.656768E6,2.34376E6,0E0,5.799488E6,0E0,1.4269504E7,0E0,0E0,0E0,0E0,0E0,6.31472E5,3.91166E5,0E0,0E0,2.69216E5,3.780725E5,1.321192E6,1.79495E5,9.758875E5,2.802495E5,0E0,0E0,0E0,0E0,0E0,0E0,0E0,0E0,0E0,0E0,0E0,0E0,0E0,0E0,0E0,0E0,0E0,0E0,0E0,0E0,0E0,0E0,0E0,0E0,0E0,0E0,0E0,0E0,0E0,0E0,0E0,0E0,0E0,0E0,0E0,0E0],"parents":[2147483647,0,0,1,1,2,2,3,3,4,4,5,5,6,6,7,7,8,8,9,9,10,10,11,11,12,12,13,13,14,14,15,15,16,16,17,17,18,18,19,19,20,20,21,21,22,22,24,24,26,26,27,27,28,28,29,29,30,30,32,32,33,33,34,34,35,35,36,36,37,37,38,38,39,39,41,41,43,43,49,49,50,50,53,53,54,54,55,55,56,56,57,57,58,58],"right_children":[2,4,6,8,10,12,14,16,18,20,22,24,26,28,30,32,34,36,38,40,42,44,46,-1,48,-1,50,52,54,56,58,-1,60,62,64,66,68,70,72,74,-1,76,-1,78,-1,-1,-1,-1,-1,80,82,-1,-1,84,86,88,90,92,94,-1,-1,-1,-1,-1,-1,-1,-1,-1,-1,-1,-1,-1,-1,-1,-1,-1,-1,-1,-1,-1,-1,-1,-1,-1,-1,-1,-1,-1,-1,-1,-1,-1,-1,-1,-1],"split_conditions":[1E0,3.9742E4,3.8178E4,2.4743E4,1E0,1E0,1E0,1.4202E4,1E0,5.6564E4,5.6195E4,2.192E4,2.1662E4,5.2775E4,2E0,8.014E3,1E0,3.2719E4,3.05E4,4.8226E4,7.9465E4,2E0,2E0,-1.3878673E2,3.2246E4,-1.1983423E2,2E0,4.6297E4,7.7303E4,5.9399E4,6.1476E4,-1.345001E2,2E0,2.1662E4,2E0,2.7323E4,3.7468E4,2E0,2E0,4.3513E4,1.389364E2,6.2513E4,3.891257E2,4.3995E4,3.9970587E2,4.1585114E2,5.9312933E2,-1.2245265E2,-1.0824255E2,3.4776E4,1E0,-1.0438397E2,-9.293462E1,6.2513E4,1.21E2,4.8729E4,1E0,4.5677E4,7.7303E4,-9.747173E1,-3.452316E1,-6.181675E1,-2.4741713E1,2.7082424E0,7.437984E1,-2.0945892E1,6.591713E0,4.0015022E1,6.462588E1,7.110638E1,1.4700827E2,1.557849E2,2.344827E2,7.750062E1,1.0342438E2,1.8409949E2,2.3632768E2,1.9275E2,2.8884296E2,-9.9306755E1,-7.2874695E1,-4.0639057E1,-7.273696E1,-8.304353E1,-7.0156784E1,-1.6819044E1,-6.077931E1,-6.93228E1,-4.844967E1,-5.447229E0,-2.4069668E1,-3.3496918E1,-1.255515E1,3.911688E1,8.17172E1],"split_indices":[3,5,5,5,2,2,2,5,2,5,5,5,5,5,2,5,2,5,5,5,5,2,2,0,5,0,2,5,5,5,5,0,2,5,2,5,5,2,2,5,0,5,0,5,0,0,0,0,0,5,4,0,0,5,6,5,4,5,5,0,0,0,0,0,0,0,0,0,0,0,0,0,0,0,0,0,0,0,0,0,0,0,0,0,0,0,0,0,0,0,0,0,0,0,0],"split_type":[0,0,0,0,0,0,0,0,0,0,0,0,0,0,0,0,0,0,0,0,0,0,0,0,0,0,0,0,0,0,0,0,0,0,0,0,0,0,0,0,0,0,0,0,0,0,0,0,0,0,0,0,0,0,0,0,0,0,0,0,0,0,0,0,0,0,0,0,0,0,0,0,0,0,0,0,0,0,0,0,0,0,0,0,0,0,0,0,0,0,0,0,0,0,0],"sum_hessian":[3.186E3,1.421E3,1.765E3,7.14E2,7.07E2,8.09E2,9.56E2,2.54E2,4.6E2,5.07E2,2E2,5.86E2,2.23E2,6.56E2,3E2,6.9E1,1.85E2,3.42E2,1.18E2,3.5E2,1.57E2,1.43E2,5.7E1,1.67E2,4.19E2,6E1,1.63E2,4.16E2,2.4E2,1.94E2,1.06E2,3.1E1,3.8E1,1.34E2,5.1E1,1.71E2,1.71E2,4.5E1,7.3E1,1.94E2,1.56E2,1.5E2,7E0,1E2,4.3E1,3.7E1,2E1,2.5E2,1.69E2,1.08E2,5.5E1,2.39E2,1.77E2,2.31E2,9E0,1.56E2,3.8E1,9.2E1,1.4E1,3.3E1,5E0,8.1E1,5.3E1,3.5E1,1.6E1,4.6E1,1.25E2,1.15E2,5.6E1,3E1,1.5E1,5.5E1,1.8E1,8.1E1,1.13E2,7E1,8E1,3.3E1,6.7E1,8E1,2.8E1,9E0,4.6E1,1.49E2,8.2E1,5E0,4E0,8.9E1,6.7E1,7E0,3.1E1,4.3E1,4.9E1,1.1E1,3E0],"tree_param":{"num_deleted":"0","num_feature":"7","num_nodes":"95","size_leaf_vector":"1"}},{"base_weights":[1.2922145E1,1.0467484E3,-8.3693555E2,2.6363504E2,1.9753215E3,-9.949451E2,-6.117999E2,-2.6875217E2,7.372332E2,1.4191343E3,3.3701208E3,-1.0841144E3,-7.736261E2,-7.7247516E2,-2.5185316E2,-7.874756E2,5.715181E0,4.1103653E2,1.6290548E3,1.1282133E3,2.1713262E3,2.8958184E3,4.6023076E3,-1.1729259E3,-9.853541E1,-9.56061E2,-6.317125E2,-8.4933464E1,-6.8494244E2,-3.8811996E2,1.3333062E1,-1.0979589E3,-5.78352E2,-2.1232654E2,6.670131E2,2.8130966E2,6.1774006E1,1.3581619E3,2.3061636E3,9.115541E2,1.3592181E3,1.9502196E2,2.9425766E2,2.4580168E3,3.7084685E3,3.7903122E2,5.463469E2,-1.3192578E2,-1.1284255E2,-1.2436338E2,-8.945242E2,-7.020917E2,-4.5850427E2,-7.0022064E2,-3.3885153E2,-4.8746683E2,-2.162025E2,-8.7808266E1,5.180141E2,-1.1502138E2,-5.2305447E1,-6.992971E1,-2.1677248E1,-3.8279984E1,-1.1662238E1,3.929069E1,1.0618014E2,7.64432E0,3.4337692E1,1.003565E2,1.5933264E2,1.731691E2,2.7005966E2,7.8438835E1,1.00639114E2,1.2287907E2,1.4823462E2,2.0149852E2,2.839324E2,2.5577701E2,3.9570578E2,-9.820077E1,-7.4296875E1,-4.8112743E1,-7.342022E1,-3.4602417E1,-5.425578E1,-5.9334362E1,-7.179107E1,-1.658489E1,-4.8421265E1,-5.684629E1,-4.0644093E1,-1.9240202E1,-5.725439E1,-1.3370053E1,1.0604547E1,2.0400183E1,5.918176E1],"categories":[],"categories_nodes":[],"categories_segments":[],"categories_sizes":[],"default_left":[0,0,0,0,0,0,0,0,0,0,0,0,0,0,0,0,0,0,0,0,0,0,0,0,0,0,0,0,0,0,0,0,0,0,0,0,0,0,0,0,0,0,0,0,0,0,0,0,0,0,0,0,0,0,0,0,0,0,0,0,0,0,0,0,0,0,0,0,0,0,0,0,0,0,0,0,0,0,0,0,0,0,0,0,0,0,0,0,0,0,0,0,0,0,0,0,0,0,0],"id":10,"left_children":[1,3,5,7,9,11,13,15,17,19,21,23,25,27,29,31,33,35,37,39,41,43,45,47,-1,49,51,-1,53,55,57,59,61,63,65,67,-1,69,71,73,75,-1,-1,77,79,-1,-1,-1,-1,-1,81,83,85,87,89,91,93,95,97,-1,-1,-1,-1,-1,-1,-1,-1,-1,-1,-1,-1,-1,-1,-1,-1,-1,-1,-1,-1,-1,-1,-1,-1,-1,-1,-1,-1,-1,-1,-1,-1,-1,-1,-1,-1,-1,-1,-1,-1],"loss_changes":[2.78869E9,1.04079795E9,6.136051E7,1.9636118E8,5.033467E8,1.933024E7,4.150416E7,5.2255256E7,1.1918501E8,1.0039962E8,9.537638E7,5.212096E6,7.085376E6,2.768608E6,8.099657E6,7.611024E6,3.4891544E7,7.951172E6,1.704448E7,1.582784E7,1.6430016E7,3.962637E7,1.425472E7,9.66304E5,0E0,1.15268E6,1.750432E6,0E0,1.021192E6,2.422368E6,3.9758825E6,9.00456E5,3.259454E6,2.924689E6,6.075644E6,2.364265E6,0E0,5.155472E6,2.121136E6,1.369344E6,7.96192E5,0E0,0E0,9.820416E6,3.03712E6,0E0,0E0,0E0,0E0,0E0,7.15584E5,4.91092E5,3.03887E5,3.216E3,2.2146812E5,3.79294E5,3.64783E5,5.924435E5,1.8054575E5,0E0,0E0,0E0,0E0,0E0,0E0,0E0,0E0,0E0,0E0,0E0,0E0,0E0,0E0,0E0,0E0,0E0,0E0,0E0,0E0,0E0,0E0,0E0,0E0,0E0,0E0,0E0,0E0,0E0,0E0,0E0,0E0,0E0,0E0,0E0,0E0,0E0,0E0,0E0,0E0],"parents":[2147483647,0,0,1,1,2,2,3,3,4,4,5,5,6,6,7,7,8,8,9,9,10,10,11,11,12,12,13,13,14,14,15,15,16,16,17,17,18,18,19,19,20,20,21,21,22,22,23,23,25,25,26,26,28,28,29,29,30,30,31,31,32,32,33,33,34,34,35,35,37,37,38,38,39,39,40,40,43,43,44,44,50,50,51,51,52,52,53,53,54,54,55,55,56,56,57,57,58,58],"right_children":[2,4,6,8,10,12,14,16,18,20,22,24,26,28,30,32,34,36,38,40,42,44,46,48,-1,50,52,-1,54,56,58,60,62,64,66,68,-1,70,72,74,76,-1,-1,78,80,-1,-1,-1,-1,-1,82,84,86,88,90,92,94,96,98,-1,-1,-1,-1,-1,-1,-1,-1,-1,-1,-1,-1,-1,-1,-1,-1,-1,-1,-1,-1,-1,-1,-1,-1,-1,-1,-1,-1,-1,-1,-1,-1,-1,-1,-1,-1,-1,-1,-1,-1],"split_conditions":[1E0,4.1424E4,4.3513E4,2.9045E4,1E0,1E0,1E0,1.9058E4,1E0,5.9399E4,5.8218E4,3.136E4,3.0164E4,5.3562E4,2E0,1.1626E4,1E0,3.7468E4,2E0,4.9934E4,7.2213E4,2E0,2E0,1.6158E4,-9.853541E1,1.3636E4,2E0,-8.4933464E1,7.4244E4,5.4956E4,6.486E4,2E0,1E0,2.3474E4,2E0,3.1629E4,6.1774006E1,3.4178E4,3.5102E4,4.5279E4,5.4116E4,1.9502196E2,2.9425766E2,4.8387E4,4.3513E4,3.7903122E2,5.463469E2,-1.3192578E2,-1.1284255E2,-1.2436338E2,2E0,1E0,2E0,1E0,1.21E2,4.8729E4,7.4244E4,5.6564E4,1.21E2,-1.1502138E2,-5.2305447E1,-6.992971E1,-2.1677248E1,-3.8279984E1,-1.1662238E1,3.929069E1,1.0618014E2,7.64432E0,3.4337692E1,1.003565E2,1.5933264E2,1.731691E2,2.7005966E2,7.8438835E1,1.00639114E2,1.2287907E2,1.4823462E2,2.0149852E2,2.839324E2,2.5577701E2,3.9570578E2,-9.820077E1,-7.4296875E1,-4.8112743E1,-7.342022E1,-3.4602417E1,-5.425578E1,-5.9334362E1,-7.179107E1,-1.658489E1,-4.8421265E1,-5.684629E1,-4.0644093E1,-1.9240202E1,-5.725439E1,-1.3370053E1,1.0604547E1,2.0400183E1,5.918176E1],"split_indices":[3,5,5,5,2,2,2,5,2,5,5,5,5,5,2,5,2,5,2,5,5,2,2,5,0,5,2,0,5,5,5,2,2,5,2,5,0,5,5,5,5,0,0,5,5,0,0,0,0,0,2,4,4,4,6,5,5,5,6,0,0,0,0,0,0,0,0,0,0,0,0,0,0,0,0,0,0,0,0,0,0,0,0,0,0,0,0,0,0,0,0,0,0,0,0,0,0,0,0],"split_type":[0,0,0,0,0,0,0,0,0,0,0,0,0,0,0,0,0,0,0,0,0,0,0,0,0,0,0,0,0,0,0,0,0,0,0,0,0,0,0,0,0,0,0,0,0,0,0,0,0,0,0,0,0,0,0,0,0,0,0,0,0,0,0,0,0,0,0,0,0,0,0,0,0,0,0,0,0,0,0,0,0,0,0,0,0,0,0,0,0,0,0,0,0,0,0,0,0,0,0],"sum_hessian":[3.172E3,1.431E3,1.741E3,7.77E2,6.54E2,1.021E3,7.2E2,3.66E2,4.11E2,4.69E2,1.85E2,7.25E2,2.96E2,4.97E2,2.23E2,1.26E2,2.4E2,3.02E2,1.09E2,3.4E2,1.29E2,1.36E2,4.9E1,3.76E2,3.49E2,1.27E2,1.69E2,2.6E2,2.37E2,1.47E2,7.6E1,4.9E1,7.7E1,1.81E2,5.9E1,1.87E2,1.15E2,8E1,2.9E1,1.78E2,1.62E2,1.03E2,2.6E1,9.1E1,4.5E1,2.8E1,2.1E1,8.1E1,2.95E2,1.9E1,1.08E2,1.18E2,5.1E1,2.26E2,1.1E1,9.2E1,5.5E1,6.4E1,1.2E1,4.4E1,5E0,5.7E1,2E1,6.4E1,1.17E2,3.6E1,2.3E1,4.4E1,1.43E2,3.4E1,4.6E1,1.4E1,1.5E1,8E1,9.8E1,8.4E1,7.8E1,4.5E1,4.6E1,1E1,3.5E1,6.5E1,4.3E1,1.7E1,1.01E2,2.4E1,2.7E1,3.7E1,1.89E2,6E0,5E0,4.3E1,4.9E1,5.3E1,2E0,5.2E1,1.2E1,3E0,9E0],"tree_param":{"num_deleted":"0","num_feature":"7","num_nodes":"99","size_leaf_vector":"1"}},{"base_weights":[-4.5548143E0,9.354177E2,-7.591931E2,2.4251018E2,1.7620265E3,-9.6672156E2,-6.25407E2,-2.1820825E2,6.670973E2,1.2890068E3,2.2674045E3,-1.1602996E3,-9.2056805E2,-6.9839606E2,-4.7071036E2,-6.534517E2,3.3534645E1,5.402136E2,9.032857E2,6.461865E2,1.3233608E3,1.9547708E3,2.7049624E3,-1.2669081E2,-1.0523451E2,-1.1311977E2,-9.0486237E2,-7.4476E2,-5.7029486E2,-5.20131E2,-3.1878424E2,-1.0523602E2,-5.10165E2,8.452823E1,-1.4852974E2,-3.5803406E1,5.7505725E2,8.3403046E2,1.0538418E3,3.6678732E2,9.84512E2,1.12589E3,1.4685002E3,1.773265E3,2.4223526E2,2.5575127E3,4.174371E2,-9.3106926E1,-7.980214E1,-6.8088837E2,-8.4991806E1,-6.3788116E1,-4.9906958E2,-8.297443E1,-5.0187756E2,-3.7488425E2,-4.290399E1,-5.866509E1,-3.5364502E1,3.6267192E0,2.0726767E1,-2.6780943E1,1.1279955E1,-1.6288076E1,3.861488E1,5.055778E1,7.3883896E1,1.39149E2,7.771089E1,3.311761E1,1.0831616E2,7.789909E0,5.6200764E1,1.3463542E2,6.395056E1,9.8432495E1,1.4762517E2,1.7458131E2,1.401399E2,9.9186424E1,1.8403447E2,1.292053E2,2.6137692E2,-1.0011962E2,-6.3422108E1,-1.3037639E1,-5.05201E1,-5.3325024E1,-3.8936996E1,-2.903334E1,-5.256086E1,-2.5207926E1,3.4773464E1],"categories":[],"categories_nodes":[],"categories_segments":[],"categories_sizes":[],"default_left":[0,0,0,0,0,0,0,0,0,0,0,0,0,0,0,0,0,0,0,0,0,0,0,0,0,0,0,0,0,0,0,0,0,0,0,0,0,0,0,0,0,0,0,0,0,0,0,0,0,0,0,0,0,0,0,0,0,0,0,0,0,0,0,0,0,0,0,0,0,0,0,0,0,0,0,0,0,0,0,0,0,0,0,0,0,0,0,0,0,0,0,0,0],"id":11,"left_children":[1,3,5,7,9,11,13,15,17,19,21,23,25,27,29,31,33,35,37,39,41,43,45,-1,-1,-1,47,49,51,53,55,-1,57,59,61,63,65,67,69,71,73,75,77,79,-1,81,-1,-1,-1,83,-1,-1,85,-1,87,89,91,-1,-1,-1,-1,-1,-1,-1,-1,-1,-1,-1,-1,-1,-1,-1,-1,-1,-1,-1,-1,-1,-1,-1,-1,-1,-1,-1,-1,-1,-1,-1,-1,-1,-1,-1,-1],"loss_changes":[2.2571182E9,8.111786E8,4.8399616E7,1.5116043E8,1.515058E8,5.096512E6,1.1820576E7,4.0672184E7,1.155936E7,6.564928E6,3.7255936E7,1.51424E5,8.35584E5,3.904992E6,2.447072E6,7.236644E6,2.2036065E6,5.3192E6,5.70392E5,1.434924E6,7.4608E6,1.1405184E7,1.684032E7,0E0,0E0,0E0,7.3536E5,2.994528E6,6.348E5,1.058616E6,1.345881E6,0E0,1.013634E6,1.0883366E6,1.6511149E6,9.208253E5,2.459936E6,2.091816E6,4.8882E5,6.329821E5,1.377015E5,5.441136E6,9.02848E5,5.355616E6,0E0,5.023296E6,0E0,0E0,0E0,4.387536E6,0E0,0E0,1.62454E5,0E0,6.71256E5,7.777E5,1.3950478E6,0E0,0E0,0E0,0E0,0E0,0E0,0E0,0E0,0E0,0E0,0E0,0E0,0E0,0E0,0E0,0E0,0E0,0E0,0E0,0E0,0E0,0E0,0E0,0E0,0E0,0E0,0E0,0E0,0E0,0E0,0E0,0E0,0E0,0E0,0E0,0E0],"parents":[2147483647,0,0,1,1,2,2,3,3,4,4,5,5,6,6,7,7,8,8,9,9,10,10,11,11,12,12,13,13,14,14,15,15,16,16,17,17,18,18,19,19,20,20,21,21,22,22,26,26,27,27,28,28,29,29,30,30,32,32,33,33,34,34,35,35,36,36,37,37,38,38,39,39,40,40,41,41,42,42,43,43,45,45,49,49,52,52,54,54,55,55,56,56],"right_children":[2,4,6,8,10,12,14,16,18,20,22,24,26,28,30,32,34,36,38,40,42,44,46,-1,-1,-1,48,50,52,54,56,-1,58,60,62,64,66,68,70,72,74,76,78,80,-1,82,-1,-1,-1,84,-1,-1,86,-1,88,90,92,-1,-1,-1,-1,-1,-1,-1,-1,-1,-1,-1,-1,-1,-1,-1,-1,-1,-1,-1,-1,-1,-1,-1,-1,-1,-1,-1,-1,-1,-1,-1,-1,-1,-1,-1,-1],"split_conditions":[1E0,4.1424E4,3.5586E4,2.9256E4,5.2602E4,1.7393E4,5.2775E4,1.9738E4,3.7655E4,1E0,6.1904E4,1.1626E4,1E0,4E0,6.5537E4,1.0587E4,3E0,1E0,4E0,1.21E2,4.6012E4,4E0,7.9465E4,-1.2669081E2,-1.0523451E2,-1.1311977E2,3.2924E4,3E0,4.3995E4,1E0,4E0,-1.0523602E2,1.7713E4,4E0,2.5702E4,3.6607E4,4E0,3.7917E4,3.7917E4,4.7026E4,4.3995E4,4E0,2E0,1E0,2.4223526E2,1E0,4.174371E2,-9.3106926E1,-7.980214E1,1E0,-8.4991806E1,-6.3788116E1,4.4072E4,-8.297443E1,4E0,3E0,6.8259E4,-5.866509E1,-3.5364502E1,3.6267192E0,2.0726767E1,-2.6780943E1,1.1279955E1,-1.6288076E1,3.861488E1,5.055778E1,7.3883896E1,1.39149E2,7.771089E1,3.311761E1,1.0831616E2,7.789909E0,5.6200764E1,1.3463542E2,6.395056E1,9.8432495E1,1.4762517E2,1.7458131E2,1.401399E2,9.9186424E1,1.8403447E2,1.292053E2,2.6137692E2,-1.0011962E2,-6.3422108E1,-1.3037639E1,-5.05201E1,-5.3325024E1,-3.8936996E1,-2.903334E1,-5.256086E1,-2.5207926E1,3.4773464E1],"split_indices":[3,5,5,5,5,5,5,5,5,0,5,5,0,0,5,5,1,0,0,6,5,0,5,0,0,0,5,0,5,0,0,0,5,0,5,5,0,5,5,5,5,0,0,0,0,0,0,0,0,0,0,0,5,0,0,0,5,0,0,0,0,0,0,0,0,0,0,0,0,0,0,0,0,0,0,0,0,0,0,0,0,0,0,0,0,0,0,0,0,0,0,0,0],"split_type":[0,0,0,0,0,0,0,0,0,0,0,0,0,0,0,0,0,0,0,0,0,0,0,0,0,0,0,0,0,0,0,0,0,0,0,0,0,0,0,0,0,0,0,0,0,0,0,0,0,0,0,0,0,0,0,0,0,0,0,0,0,0,0,0,0,0,0,0,0,0,0,0,0,0,0,0,0,0,0,0,0,0,0,0,0,0,0,0,0,0,0,0,0],"sum_hessian":[3.18E3,1.416E3,1.764E3,7.71E2,6.45E2,6.89E2,1.075E3,3.7E2,4.01E2,3.35E2,3.1E2,1.28E2,5.61E2,7.28E2,3.47E2,1.35E2,2.35E2,2.63E2,1.38E2,1.8E1,3.17E2,1.84E2,1.26E2,5.9E1,6.9E1,3.4E1,5.27E2,5.31E2,1.97E2,2.6E2,8.7E1,3.4E1,1.01E2,1.84E2,5.1E1,1.5E1,2.48E2,9.9E1,3.9E1,1.1E1,7E0,1.38E2,1.79E2,1.36E2,4.8E1,1.17E2,9E0,4.17E2,1.1E2,3.35E2,1.96E2,9.7E1,1E2,1.2E1,2.48E2,7.2E1,1.5E1,6.6E1,3.5E1,1.33E2,5.1E1,3.5E1,1.6E1,1.2E1,3E0,1.77E2,7.1E1,7E0,9.2E1,2E0,3.7E1,5E0,6E0,2E0,5E0,1.01E2,3.7E1,3E1,1.49E2,1.2E1,1.24E2,6E0,1.11E2,4E1,2.95E2,2E0,9.8E1,1.91E2,5.7E1,4.8E1,2.4E1,1E1,5E0],"tree_param":{"num_deleted":"0","num_feature":"7","num_nodes":"93","size_leaf_vector":"1"}},{"base_weights":[2.2860249E1,8.724966E2,-6.824381E2,4.7784134E2,1.8680112E3,-7.878269E2,-4.2806003E2,5.924106E2,4.4025528E2,1.4914552E2,2.5916423E3,-7.02282E1,-8.034231E1,-5.1485767E2,-2.529939E2,8.2694954E1,5.610093E2,5.0392764E2,4.0129108E2,2.7909518E2,2.295883E2,-4.4812125E2,-6.0335712E1,-1.3766223E2,-2.877737E2,4.7584027E2,5.934967E2,3.8544345E2,5.571557E2,4.2008583E1,3.5208945E2,-3.558125E2,-4.718762E1,-3.953167E1,-2.2507495E2,-2.4304642E2,-3.6098303E2,2.879535E1,6.7821434E1,6.5541595E1,5.3736694E1,1.826886E1,5.0067234E1,6.838011E1,3.853219E1,3.1264072E1,3.836878E1,-4.142149E1,-2.7592756E1,-1.0820047E1,1.1049166E0,-3.7131287E1,-1.918855E1,-2.7517563E1,-1.3853205E1,-4.101031E1,-2.5633274E1],"categories":[],"categories_nodes":[],"categories_segments":[],"categories_sizes":[],"default_left":[0,0,0,0,0,0,0,0,0,0,0,0,0,0,0,0,0,0,0,0,0,0,0,0,0,0,0,0,0,0,0,0,0,0,0,0,0,0,0,0,0,0,0,0,0,0,0,0,0,0,0,0,0,0,0,0,0],"id":12,"left_children":[1,3,5,7,9,11,13,15,17,-1,19,-1,-1,21,23,-1,25,27,29,-1,-1,31,-1,33,35,37,39,41,43,-1,45,47,-1,49,51,53,55,-1,-1,-1,-1,-1,-1,-1,-1,-1,-1,-1,-1,-1,-1,-1,-1,-1,-1,-1,-1],"loss_changes":[1.9235794E9,5.71148E8,4.668499E7,4.234864E6,1.0867226E8,1.088896E6,7.710528E6,1.414112E6,1.757712E6,0E0,1.844928E6,0E0,0E0,1.761336E6,6.54324E5,0E0,3.4844E5,1.652024E6,3.0984E5,0E0,0E0,2.7066E5,0E0,3.5137244E5,3.44492E5,2.390299E6,2.07364E5,2.128038E6,4.132428E6,0E0,5.8296E4,9.56525E4,0E0,7.413536E4,3.5528625E4,2.473065E5,1.416185E5,0E0,0E0,0E0,0E0,0E0,0E0,0E0,0E0,0E0,0E0,0E0,0E0,0E0,0E0,0E0,0E0,0E0,0E0,0E0,0E0],"parents":[2147483647,0,0,1,1,2,2,3,3,4,4,5,5,6,6,7,7,8,8,10,10,13,13,14,14,16,16,17,17,18,18,21,21,23,23,24,24,25,25,26,26,27,27,28,28,30,30,31,31,33,33,34,34,35,35,36,36],"right_children":[2,4,6,8,10,12,14,16,18,-1,20,-1,-1,22,24,-1,26,28,30,-1,-1,32,-1,34,36,38,40,42,44,-1,46,48,-1,50,52,54,56,-1,-1,-1,-1,-1,-1,-1,-1,-1,-1,-1,-1,-1,-1,-1,-1,-1,-1,-1,-1],"split_conditions":[1E0,1E0,1E0,1E0,2E0,1E0,2E0,1E0,2E0,1.4914552E2,3E0,-7.02282E1,-8.034231E1,3E0,1E0,8.2694954E1,2E0,2E0,3E0,2.7909518E2,2.295883E2,1.21E2,-6.0335712E1,2E0,3E0,1.21E2,1.21E2,1E0,3E0,4.2008583E1,1.21E2,2E0,-4.718762E1,1E0,1.21E2,2E0,3E0,2.879535E1,6.7821434E1,6.5541595E1,5.3736694E1,1.826886E1,5.0067234E1,6.838011E1,3.853219E1,3.1264072E1,3.836878E1,-4.142149E1,-2.7592756E1,-1.0820047E1,1.1049166E0,-3.7131287E1,-1.918855E1,-2.7517563E1,-1.3853205E1,-4.101031E1,-2.5633274E1],"split_indices":[3,2,2,1,2,4,2,4,4,0,4,0,0,4,1,0,4,1,1,0,0,6,0,4,4,6,6,4,1,0,6,1,0,4,6,4,1,0,0,0,0,0,0,0,0,0,0,0,0,0,0,0,0,0,0,0,0],"split_type":[0,0,0,0,0,0,0,0,0,0,0,0,0,0,0,0,0,0,0,0,0,0,0,0,0,0,0,0,0,0,0,0,0,0,0,0,0,0,0,0,0,0,0,0,0,0,0,0,0,0,0,0,0,0,0,0,0],"sum_hessian":[3.208E3,1.455E3,1.753E3,1.043E3,4.12E2,1.238E3,5.15E2,2.54E2,7.89E2,2.73E2,1.39E2,1.98E2,1.04E3,3.43E2,1.72E2,2.7E1,2.27E2,2.95E2,4.94E2,7.8E1,6.1E1,1.99E2,1.44E2,4.1E1,1.31E2,6.7E1,1.6E2,9.4E1,2.01E2,3.52E2,1.42E2,4.4E1,1.55E2,2E1,2.1E1,8.4E1,4.7E1,3.6E1,3.1E1,7.1E1,8.9E1,3.5E1,5.9E1,1.14E2,8.7E1,6.8E1,7.4E1,2.3E1,2.1E1,8E0,1.2E1,2E0,1.9E1,6.3E1,2.1E1,3E1,1.7E1],"tree_param":{"num_deleted":"0","num_feature":"7","num_nodes":"57","size_leaf_vector":"1"}},{"base_weights":[2.7296295E0,7.538579E2,-6.1786224E2,4.3144827E2,1.5818485E3,-7.06452E2,-3.9656805E2,-1.02535194E2,4.6523212E2,1.2986542E3,2.159853E2,-9.818676E1,-6.8906305E2,-4.8640622E2,-2.1720125E2,-1.9171777E2,8.634665E0,4.1349173E2,6.1609143E2,7.3267914E1,1.3262057E3,-6.095246E1,-7.082816E2,-5.254636E2,-3.653496E1,-6.46331E1,-1.8344804E2,-2.284031E2,-1.2757713E2,2.2720106E1,-1.5901227E2,4.8097992E2,3.1676746E2,7.948052E1,5.6011847E2,1.4593473E3,1.2025437E3,-7.4315686E2,-6.3006863E1,-4.2934253E2,-6.687067E1,-4.0285286E1,-2.9275854E2,-2.9975986E1,-1.3628245E1,7.915695E0,-3.1836409E1,-5.113772E0,-2.7397892E1,5.4913586E1,4.516624E1,2.45922E1,3.7617775E1,4.4336338E1,6.2899677E1,1.3225731E2,1.5994298E2,8.6813995E1,1.485244E2,-6.720776E1,-7.960866E1,-6.581513E1,-3.919879E1,1.3978694E1,-8.779954E0,-4.1268505E1,-1.0981829E1],"categories":[],"categories_nodes":[],"categories_segments":[],"categories_sizes":[],"default_left":[0,0,0,0,0,0,0,0,0,0,0,0,0,0,0,0,0,0,0,0,0,0,0,0,0,0,0,0,0,0,0,0,0,0,0,0,0,0,0,0,0,0,0,0,0,0,0,0,0,0,0,0,0,0,0,0,0,0,0,0,0,0,0,0,0,0,0],"id":13,"left_children":[1,3,5,7,9,11,13,15,17,19,-1,-1,21,23,25,27,29,31,33,-1,35,-1,37,39,-1,-1,41,43,45,-1,47,49,51,-1,53,55,57,59,-1,61,-1,63,65,-1,-1,-1,-1,-1,-1,-1,-1,-1,-1,-1,-1,-1,-1,-1,-1,-1,-1,-1,-1,-1,-1,-1,-1],"loss_changes":[1.4939913E9,3.8639814E8,3.412563E7,1.8899504E7,6.3652224E7,5.319488E6,8.0158E6,6.2626356E5,7.41808E6,3.316576E6,0E0,0E0,1.373568E6,1.39196E6,2.3437975E6,5.321675E4,1.0987452E6,4.645536E6,2.0456E6,0E0,2.542304E6,0E0,2.10944E6,3.168832E6,0E0,0E0,2.4764275E6,9.719E4,6.168332E5,0E0,1.9682297E5,6.13176E5,1.191218E6,0E0,1.273208E6,2.02976E5,1.2040192E7,1.90288E6,0E0,1.049716E6,0E0,6.1119306E5,1.929225E6,0E0,0E0,0E0,0E0,0E0,0E0,0E0,0E0,0E0,0E0,0E0,0E0,0E0,0E0,0E0,0E0,0E0,0E0,0E0,0E0,0E0,0E0,0E0,0E0],"parents":[2147483647,0,0,1,1,2,2,3,3,4,4,5,5,6,6,7,7,8,8,9,9,12,12,13,13,14,14,15,15,16,16,17,17,18,18,20,20,22,22,23,23,26,26,27,27,28,28,30,30,31,31,32,32,34,34,35,35,36,36,37,37,39,39,41,41,42,42],"right_children":[2,4,6,8,10,12,14,16,18,20,-1,-1,22,24,26,28,30,32,34,-1,36,-1,38,40,-1,-1,42,44,46,-1,48,50,52,-1,54,56,58,60,-1,62,-1,64,66,-1,-1,-1,-1,-1,-1,-1,-1,-1,-1,-1,-1,-1,-1,-1,-1,-1,-1,-1,-1,-1,-1,-1,-1],"split_conditions":[1E0,1E0,1E0,1E0,2E0,1E0,2E0,2E0,4E0,1E0,2.159853E2,-9.818676E1,2E0,4E0,1E0,1.21E2,3E0,3E0,1E0,7.3267914E1,3E0,-6.095246E1,4E0,3E0,-3.653496E1,-6.46331E1,3E0,1E0,1E0,2.2720106E1,1.21E2,1E0,1.21E2,7.948052E1,2E0,2E0,4E0,3E0,-6.3006863E1,1E0,-6.687067E1,1E0,4E0,-2.9975986E1,-1.3628245E1,7.915695E0,-3.1836409E1,-5.113772E0,-2.7397892E1,5.4913586E1,4.516624E1,2.45922E1,3.7617775E1,4.4336338E1,6.2899677E1,1.3225731E2,1.5994298E2,8.6813995E1,1.485244E2,-6.720776E1,-7.960866E1,-6.581513E1,-3.919879E1,1.3978694E1,-8.779954E0,-4.1268505E1,-1.0981829E1],"split_indices":[3,2,2,0,2,0,2,1,0,0,0,0,0,0,0,6,1,0,1,0,0,0,0,0,0,0,0,1,1,0,6,1,6,0,1,1,0,0,0,0,0,1,0,0,0,0,0,0,0,0,0,0,0,0,0,0,0,0,0,0,0,0,0,0,0,0,0],"split_type":[0,0,0,0,0,0,0,0,0,0,0,0,0,0,0,0,0,0,0,0,0,0,0,0,0,0,0,0,0,0,0,0,0,0,0,0,0,0,0,0,0,0,0,0,0,0,0,0,0,0,0,0,0,0,0,0,0,0,0,0,0,0,0,0,0,0,0],"sum_hessian":[3.203E3,1.449E3,1.754E3,1.044E3,4.05E2,1.251E3,5.03E2,6.2E1,9.82E2,2.74E2,1.31E2,7.1E1,1.18E3,3.34E2,1.69E2,3.4E1,2.8E1,7.34E2,2.48E2,1.4E1,2.6E2,2.36E2,9.44E2,2.5E2,8.4E1,1.1E1,1.58E2,2E1,1.4E1,1.2E1,1.6E1,4.3E2,3.04E2,5.6E1,1.92E2,1.2E2,1.4E2,6.47E2,2.97E2,1.52E2,9.8E1,6.9E1,8.9E1,1E1,1E1,7E0,7E0,9E0,7E0,1.24E2,3.06E2,1.41E2,1.63E2,7.4E1,1.18E2,6.6E1,5.4E1,6.6E1,7.4E1,2.82E2,3.65E2,1.9E1,1.33E2,1.4E1,5.5E1,5.3E1,3.6E1],"tree_param":{"num_deleted":"0","num_feature":"7","num_nodes":"67","size_leaf_vector":"1"}},{"base_weights":[7.2879763E0,-1.7264842E2,4.632777E2,-5.576816E2,-1.4795773E2,2.9495633E2,7.989438E2,-4.4609686E2,-6.160127E2,-3.3491318E1,-2.094881E2,5.0545456E2,1.9053615E2,-4.5690243E1,8.5263776E2,-6.884184E1,-3.3580173E2,-4.7980377E2,-6.568281E1,-7.527822E1,8.964977E1,-2.4009862E2,-1.2515908E2,3.0049603E2,6.9555634E2,-3.1669235E2,2.1902573E2,-4.62412E2,2.9941757E2,1.0966917E3,7.410957E2,-1.7799055E2,-5.109919E1,-5.9963497E1,-3.51379E1,-2.1019527E1,-2.5310393E2,2.2198578E2,4.7628647E1,-1.2824167E2,-2.813343E2,-1.0691097E2,-1.9240941E2,5.699157E2,-4.3108013E1,8.491947E2,4.6142847E2,-4.2595123E2,2.8146045E2,3.3175125E2,1.4486632E2,4.238633E1,-6.261793E1,7.834309E2,-2.3449866E2,1.7403182E3,8.381959E2,6.2996484E2,8.242735E2,-3.5013805E1,-8.578902E0,4.2059636E0,-1.1372683E1,-3.199443E1,-1.5667869E1,-1.1630443E1,3.7362225E1,1.1973475E1,6.3106015E-2,-7.6975436E0,-1.8640854E1,-2.2518818E1,-3.1656193E1,-7.28142E-2,-1.2729517E1,-3.886912E1,-9.969206E0,4.0222637E1,1.03227554E2,3.1908142E1,-2.8297104E1,6.7983986E1,1.5571861E2,8.223941E1,7.948884E0,-4.8298203E1,-2.2188745E1,-4.4578857E1,6.72473E1,5.9055458E1,1.6578161E1,-1.6924828E0,3.0136133E1,-2.7111334E1,1.0485624E2,-2.718561E0,-4.3274986E1,1.0614304E2,2.965415E2,1.12139786E2,6.0122692E1,4.530835E1,1.3524573E2,9.856594E1,3.395178E1],"categories":[],"categories_nodes":[],"categories_segments":[],"categories_sizes":[],"default_left":[0,0,0,0,0,0,0,0,0,0,0,0,0,0,0,0,0,0,0,0,0,0,0,0,0,0,0,0,0,0,0,0,0,0,0,0,0,0,0,0,0,0,0,0,0,0,0,0,0,0,0,0,0,0,0,0,0,0,0,0,0,0,0,0,0,0,0,0,0,0,0,0,0,0,0,0,0,0,0,0,0,0,0,0,0,0,0,0,0,0,0,0,0,0,0,0,0,0,0,0,0,0,0,0,0],"id":14,"left_children":[1,3,5,7,9,11,13,15,17,19,21,23,25,27,29,-1,31,33,-1,35,37,39,41,43,45,47,49,51,53,55,57,59,-1,-1,-1,61,63,65,67,69,71,73,75,77,79,81,83,85,87,89,91,-1,-1,93,95,97,99,101,103,-1,-1,-1,-1,-1,-1,-1,-1,-1,-1,-1,-1,-1,-1,-1,-1,-1,-1,-1,-1,-1,-1,-1,-1,-1,-1,-1,-1,-1,-1,-1,-1,-1,-1,-1,-1,-1,-1,-1,-1,-1,-1,-1,-1,-1,-1],"loss_changes":[2.6271933E8,2.1744952E7,5.0953136E7,6.23424E5,1.5199168E7,1.3201756E7,1.37352E7,1.131899E6,1.7408E5,3.8968862E6,3.594172E6,7.583584E6,5.936359E6,2.8709192E6,6.918368E6,0E0,9.31986E5,1.586445E5,0E0,5.446133E6,1.0571216E6,4.71018E6,4.40853E5,9.096791E6,3.313168E6,1.5576655E6,3.17041E6,1.5717008E6,3.0263618E6,1.301588E7,1.310976E6,3.0327956E5,0E0,0E0,0E0,2.5427715E6,8.00624E5,2.403122E6,4.980799E5,8.176285E5,1.414116E6,6.44914E5,1.3989502E6,3.849096E6,3.9128288E6,6.255372E6,5.862913E6,1.13953E5,1.4372348E6,6.431028E6,5.929865E6,0E0,0E0,1.9618368E6,2.3483578E5,1.6813288E7,3.620832E6,1.0761016E7,8.270952E6,0E0,0E0,0E0,0E0,0E0,0E0,0E0,0E0,0E0,0E0,0E0,0E0,0E0,0E0,0E0,0E0,0E0,0E0,0E0,0E0,0E0,0E0,0E0,0E0,0E0,0E0,0E0,0E0,0E0,0E0,0E0,0E0,0E0,0E0,0E0,0E0,0E0,0E0,0E0,0E0,0E0,0E0,0E0,0E0,0E0,0E0],"parents":[2147483647,0,0,1,1,2,2,3,3,4,4,5,5,6,6,7,7,8,8,9,9,10,10,11,11,12,12,13,13,14,14,16,16,17,17,19,19,20,20,21,21,22,22,23,23,24,24,25,25,26,26,27,27,28,28,29,29,30,30,31,31,35,35,36,36,37,37,38,38,39,39,40,40,41,41,42,42,43,43,44,44,45,45,46,46,47,47,48,48,49,49,50,50,53,53,54,54,55,55,56,56,57,57,58,58],"right_children":[2,4,6,8,10,12,14,16,18,20,22,24,26,28,30,-1,32,34,-1,36,38,40,42,44,46,48,50,52,54,56,58,60,-1,-1,-1,62,64,66,68,70,72,74,76,78,80,82,84,86,88,90,92,-1,-1,94,96,98,100,102,104,-1,-1,-1,-1,-1,-1,-1,-1,-1,-1,-1,-1,-1,-1,-1,-1,-1,-1,-1,-1,-1,-1,-1,-1,-1,-1,-1,-1,-1,-1,-1,-1,-1,-1,-1,-1,-1,-1,-1,-1,-1,-1,-1,-1,-1,-1],"split_conditions":[1E0,1E0,2E0,1.21E2,1.21E2,1.21E2,1E0,1E0,1E0,4E0,4E0,2E0,1E0,2E0,1.21E2,-6.884184E1,3E0,2E0,-6.568281E1,3E0,1E0,2E0,3E0,1E0,3E0,3E0,3E0,1.21E2,3E0,1E0,2E0,2E0,-5.109919E1,-5.9963497E1,-3.51379E1,3E0,3E0,5E0,2E0,2E0,2E0,1E0,5E0,4E0,3E0,5E0,3E0,3E0,1E0,2E0,4E0,4.238633E1,-6.261793E1,1E0,3E0,4E0,3E0,5E0,4E0,-3.5013805E1,-8.578902E0,4.2059636E0,-1.1372683E1,-3.199443E1,-1.5667869E1,-1.1630443E1,3.7362225E1,1.1973475E1,6.3106015E-2,-7.6975436E0,-1.8640854E1,-2.2518818E1,-3.1656193E1,-7.28142E-2,-1.2729517E1,-3.886912E1,-9.969206E0,4.0222637E1,1.03227554E2,3.1908142E1,-2.8297104E1,6.7983986E1,1.5571861E2,8.223941E1,7.948884E0,-4.8298203E1,-2.2188745E1,-4.4578857E1,6.72473E1,5.9055458E1,1.6578161E1,-1.6924828E0,3.0136133E1,-2.7111334E1,1.0485624E2,-2.718561E0,-4.3274986E1,1.0614304E2,2.965415E2,1.12139786E2,6.0122692E1,4.530835E1,1.3524573E2,9.856594E1,3.395178E1],"split_indices":[2,0,2,6,6,6,0,1,1,0,0,1,0,1,6,0,1,4,0,1,1,0,1,1,1,1,0,6,4,1,4,4,0,0,0,0,4,0,4,1,4,4,0,0,0,0,0,4,4,4,0,0,0,4,1,0,0,0,0,0,0,0,0,0,0,0,0,0,0,0,0,0,0,0,0,0,0,0,0,0,0,0,0,0,0,0,0,0,0,0,0,0,0,0,0,0,0,0,0,0,0,0,0,0,0],"split_type":[0,0,0,0,0,0,0,0,0,0,0,0,0,0,0,0,0,0,0,0,0,0,0,0,0,0,0,0,0,0,0,0,0,0,0,0,0,0,0,0,0,0,0,0,0,0,0,0,0,0,0,0,0,0,0,0,0,0,0,0,0,0,0,0,0,0,0,0,0,0,0,0,0,0,0,0,0,0,0,0,0,0,0,0,0,0,0,0,0,0,0,0,0,0,0,0,0,0,0,0,0,0,0,0,0],"sum_hessian":[3.2E3,2.295E3,9.05E2,1.37E2,2.158E3,6.04E2,3.01E2,5E1,8.7E1,7.55E2,1.403E3,1.99E2,4.05E2,1.8E1,2.83E2,1.4E1,3.6E1,2.3E1,6.4E1,5.64E2,1.91E2,1.028E3,3.75E2,9.7E1,1.02E2,2.1E1,3.84E2,8E0,1E1,8.6E1,1.97E2,2E1,1.6E1,1E1,1.3E1,4.33E2,1.31E2,4.5E1,1.46E2,2.78E2,7.5E2,2.97E2,7.8E1,5.4E1,4.3E1,6E1,4.2E1,1.8E1,3E0,1.51E2,2.33E2,1E0,7E0,5E0,5E0,2.3E1,6.3E1,8.8E1,1.09E2,6E0,1.4E1,2.58E2,1.75E2,7.6E1,5.5E1,1.4E1,3.1E1,5.7E1,8.9E1,1.49E2,1.29E2,2.92E2,4.58E2,4.8E1,2.49E2,2.4E1,5.4E1,4.1E1,1.3E1,1.7E1,2.6E1,5E1,1E1,2.1E1,2.1E1,1.3E1,5E0,1E0,2E0,5.8E1,9.3E1,1.15E2,1.18E2,1E0,4E0,3E0,2E0,1.6E1,7E0,2.7E1,3.6E1,7.2E1,1.6E1,8.1E1,2.8E1],"tree_param":{"num_deleted":"0","num_feature":"7","num_nodes":"105","size_leaf_vector":"1"}},{"base_weights":[1.2326373E1,6.862948E2,-5.527327E2,-1.03664314E2,1.2973221E3,-6.8302704E2,-3.8647748E2,-6.499195E2,1.4849828E2,8.902027E2,2.2918064E3,-8.490451E2,-6.3251294E2,-4.854867E2,-1.5378288E2,-9.8185E2,-4.5447165E2,-2.0519714E1,6.178458E2,6.4438074E2,1.4699734E3,1.6180006E3,3.0414077E3,-1.0015373E2,-7.925889E1,-6.8010767E2,-5.0703223E2,-5.2415045E2,-3.623026E2,-2.1443294E2,1.5030023E2,-1.1840922E2,-8.33005E1,-4.9979736E2,-1.1580717E1,-1.9481116E2,1.3554526E2,4.067225E2,8.698683E2,4.501073E2,8.4604346E2,1.2768929E2,1.875395E3,1.3726361E3,2.1843663E2,2.7907798E3,4.735361E2,-7.255758E1,-6.422487E1,-5.8279626E2,-4.1198175E2,-5.627122E1,-4.787127E2,-3.8971603E2,-1.0340963E2,-2.93617E2,-7.728169E1,-2.755792E1,4.3671048E2,-5.9289425E1,-4.2147293E1,-2.7499731E1,9.494399E0,-2.6704142E1,-1.1199661E1,4.639126E0,2.6046087E1,2.4812569E1,6.8554596E1,7.400087E1,1.09369644E2,3.628598E1,5.6758858E1,7.2946236E1,9.407579E1,1.7199222E2,2.5543736E2,1.181985E2,1.6363718E2,2.3117911E2,3.3478613E2,-3.9328796E1,-6.0945126E1,-4.5403347E1,-3.078061E1,-4.413681E1,-5.2433743E1,-2.9134802E1,-4.1024853E1,-1.8157478E1,7.3602586E0,-3.6078873E1,-2.2279293E1,-1.5342943E1,-1.1033177E-1,2.319595E0,-4.0748497E1,3.3663635E1,7.247948E1],"categories":[],"categories_nodes":[],"categories_segments":[],"categories_sizes":[],"default_left":[0,0,0,0,0,0,0,0,0,0,0,0,0,0,0,0,0,0,0,0,0,0,0,0,0,0,0,0,0,0,0,0,0,0,0,0,0,0,0,0,0,0,0,0,0,0,0,0,0,0,0,0,0,0,0,0,0,0,0,0,0,0,0,0,0,0,0,0,0,0,0,0,0,0,0,0,0,0,0,0,0,0,0,0,0,0,0,0,0,0,0,0,0,0,0,0,0,0,0],"id":15,"left_children":[1,3,5,7,9,11,13,15,17,19,21,23,25,27,29,31,33,35,37,39,41,43,45,-1,-1,47,49,51,53,55,57,-1,-1,59,61,63,65,67,69,71,73,-1,75,77,-1,79,-1,-1,-1,81,83,-1,85,87,89,91,93,95,97,-1,-1,-1,-1,-1,-1,-1,-1,-1,-1,-1,-1,-1,-1,-1,-1,-1,-1,-1,-1,-1,-1,-1,-1,-1,-1,-1,-1,-1,-1,-1,-1,-1,-1,-1,-1,-1,-1,-1,-1],"loss_changes":[1.2217074E9,7.0630483E8,3.753645E7,8.811565E7,3.3198093E8,7.656352E6,1.7642256E7,1.2658552E7,3.4758416E7,8.271226E7,1.1579443E8,1.143232E6,4.152224E6,2.377232E6,4.2924825E6,1.241248E6,2.583802E6,8.81226E6,5.818312E6,1.5838752E7,1.1225856E7,1.478928E7,3.433453E7,0E0,0E0,4.68704E5,1.279396E6,4.45504E5,8.96522E5,2.073326E6,1.9987102E6,0E0,0E0,6.03248E5,3.9089425E5,8.852945E5,1.892297E6,2.704232E6,7.021E5,1.977284E6,1.544224E6,0E0,1.307056E6,2.691744E6,0E0,1.8943936E7,0E0,0E0,0E0,3.41216E5,2.85179E5,0E0,9.9116E4,1.20824E5,2.0707098E5,5.00018E5,4.1748912E5,4.915212E5,1.884545E5,0E0,0E0,0E0,0E0,0E0,0E0,0E0,0E0,0E0,0E0,0E0,0E0,0E0,0E0,0E0,0E0,0E0,0E0,0E0,0E0,0E0,0E0,0E0,0E0,0E0,0E0,0E0,0E0,0E0,0E0,0E0,0E0,0E0,0E0,0E0,0E0,0E0,0E0,0E0,0E0],"parents":[2147483647,0,0,1,1,2,2,3,3,4,4,5,5,6,6,7,7,8,8,9,9,10,10,11,11,12,12,13,13,14,14,15,15,16,16,17,17,18,18,19,19,20,20,21,21,22,22,25,25,26,26,27,27,28,28,29,29,30,30,33,33,34,34,35,35,36,36,37,37,38,38,39,39,40,40,42,42,43,43,45,45,49,49,50,50,52,52,53,53,54,54,55,55,56,56,57,57,58,58],"right_children":[2,4,6,8,10,12,14,16,18,20,22,24,26,28,30,32,34,36,38,40,42,44,46,-1,-1,48,50,52,54,56,58,-1,-1,60,62,64,66,68,70,72,74,-1,76,78,-1,80,-1,-1,-1,82,84,-1,86,88,90,92,94,96,98,-1,-1,-1,-1,-1,-1,-1,-1,-1,-1,-1,-1,-1,-1,-1,-1,-1,-1,-1,-1,-1,-1,-1,-1,-1,-1,-1,-1,-1,-1,-1,-1,-1,-1,-1,-1,-1,-1,-1,-1],"split_conditions":[1E0,3.6856E4,4.2602E4,2.192E4,1E0,2.192E4,1E0,1.4202E4,1E0,5.6012E4,5.0112E4,1.0587E4,1E0,5.97E4,6.1476E4,6.743E3,2E0,2.9658E4,3.05E4,4.5677E4,6.6779E4,2E0,6.8931E4,-1.0015373E2,-7.925889E1,3.2246E4,3.5401E4,4.952E4,7.4244E4,2E0,2E0,-1.1840922E2,-8.33005E1,1.8326E4,1.6772E4,2.6681E4,3.461E4,2E0,2E0,4.2025E4,5.0112E4,1.2768929E2,7.9465E4,4.3626E4,2.1843663E2,2E0,4.735361E2,-7.255758E1,-6.422487E1,1E0,2E0,-5.627122E1,3E0,1E0,3E0,5.0311E4,4.8226E4,7.4244E4,7.7303E4,-5.9289425E1,-4.2147293E1,-2.7499731E1,9.494399E0,-2.6704142E1,-1.1199661E1,4.639126E0,2.6046087E1,2.4812569E1,6.8554596E1,7.400087E1,1.09369644E2,3.628598E1,5.6758858E1,7.2946236E1,9.407579E1,1.7199222E2,2.5543736E2,1.181985E2,1.6363718E2,2.3117911E2,3.3478613E2,-3.9328796E1,-6.0945126E1,-4.5403347E1,-3.078061E1,-4.413681E1,-5.2433743E1,-2.9134802E1,-4.1024853E1,-1.8157478E1,7.3602586E0,-3.6078873E1,-2.2279293E1,-1.5342943E1,-1.1033177E-1,2.319595E0,-4.0748497E1,3.3663635E1,7.247948E1],"split_indices":[3,5,5,5,2,5,2,5,2,5,5,5,2,5,5,5,2,5,5,5,5,2,5,0,0,5,5,5,5,2,2,0,0,5,5,5,5,2,2,5,5,0,5,5,0,2,0,0,0,4,2,0,4,4,4,5,5,5,5,0,0,0,0,0,0,0,0,0,0,0,0,0,0,0,0,0,0,0,0,0,0,0,0,0,0,0,0,0,0,0,0,0,0,0,0,0,0,0,0],"split_type":[0,0,0,0,0,0,0,0,0,0,0,0,0,0,0,0,0,0,0,0,0,0,0,0,0,0,0,0,0,0,0,0,0,0,0,0,0,0,0,0,0,0,0,0,0,0,0,0,0,0,0,0,0,0,0,0,0,0,0,0,0,0,0,0,0,0,0,0,0,0,0,0,0,0,0,0,0,0,0,0,0,0,0,0,0,0,0,0,0,0,0,0,0,0,0,0,0,0,0],"sum_hessian":[3.206E3,1.462E3,1.744E3,6.38E2,8.24E2,9.76E2,7.68E2,2.01E2,4.37E2,5.86E2,2.38E2,2.24E2,7.52E2,5.38E2,2.3E2,7.3E1,1.28E2,3.22E2,1.15E2,4.13E2,1.73E2,1.27E2,1.11E2,5.6E1,1.68E2,5.42E2,2.1E2,4.07E2,1.31E2,1.92E2,3.8E1,2.8E1,4.5E1,1.16E2,1.2E1,1.52E2,1.7E2,6.4E1,5.1E1,2.12E2,2.01E2,1.2E2,5.3E1,9.1E1,3.6E1,9.9E1,1.2E1,2.38E2,3.04E2,1.14E2,9.6E1,2.14E2,1.93E2,1.18E2,1.3E1,1.21E2,7.1E1,2.4E1,1.4E1,5E1,6.6E1,3E0,9E0,8E1,7.2E1,1E2,7E1,4.2E1,2.2E1,3.5E1,1.6E1,1.24E2,8.8E1,9.4E1,1.07E2,4.6E1,7E0,5.6E1,3.5E1,5.6E1,4.3E1,1.6E1,9.8E1,6.6E1,3E1,1.12E2,8.1E1,2.3E1,9.5E1,9E0,4E0,6E1,6.1E1,3.5E1,3.6E1,2.2E1,2E0,1.2E1,2E0],"tree_param":{"num_deleted":"0","num_feature":"7","num_nodes":"99","size_leaf_vector":"1"}},{"base_weights":[8.447895E0,6.3309814E2,-5.0429218E2,9.429345E1,1.3545735E3,-6.206981E2,-3.508808E2,-3.1860855E2,4.3970407E2,9.635114E2,2.3516365E3,-7.402955E2,-5.563496E2,-4.3926968E2,-1.5305154E2,-6.901434E2,-1.0184212E2,2.3009915E2,9.5624567E2,7.635788E2,1.4816659E3,1.9048789E3,3.023348E3,-9.162424E1,-6.95228E2,-6.062031E2,-4.2994028E2,-6.850572E2,-4.2342203E2,-2.1434593E2,1.17893295E2,-9.418263E2,-5.2701154E2,-1.6363783E2,5.123175E2,2.8831852E1,3.2687216E2,6.4766223E2,1.1311141E3,6.073364E2,9.1700183E2,1.3824814E3,2.5733728E2,1.6065692E3,2.3211946E3,2.7240283E3,4.6496255E2,-7.08034E1,-5.4387714E1,-6.277698E2,-5.216386E1,-5.1522437E2,-3.5990976E2,-6.94891E1,-1.999381E1,-4.657566E2,-3.2158978E2,-2.760275E2,-9.7808525E1,3.663288E-1,3.235426E2,-1.07221924E2,-7.871106E1,-5.483688E1,-2.8335844E1,-2.078093E1,3.1044805E0,1.6497705E1,6.04772E1,-3.3431976E0,8.60432E0,-5.6388793E0,3.4771244E1,5.3250874E1,9.2558655E1,9.810491E1,1.4668846E2,1.1616366E1,6.2223904E1,3.318084E1,9.456185E1,6.641015E1,1.4232718E2,7.881243E1,1.6616374E2,8.286336E1,2.41476E2,2.1051785E2,2.9053406E2,-7.613332E1,-6.134936E1,-5.6332546E1,-3.9637684E1,-2.7870767E0,-3.6602715E1,-5.0536175E1,-4.277183E1,-2.6282267E1,-3.669549E1,-3.1346064E1,-1.8544523E1,-1.4289271E1,7.1015153E0,-3.8031925E1,4.2651157E0,5.6696716E1,7.1215982E0],"categories":[],"categories_nodes":[],"categories_segments":[],"categories_sizes":[],"default_left":[0,0,0,0,0,0,0,0,0,0,0,0,0,0,0,0,0,0,0,0,0,0,0,0,0,0,0,0,0,0,0,0,0,0,0,0,0,0,0,0,0,0,0,0,0,0,0,0,0,0,0,0,0,0,0,0,0,0,0,0,0,0,0,0,0,0,0,0,0,0,0,0,0,0,0,0,0,0,0,0,0,0,0,0,0,0,0,0,0,0,0,0,0,0,0,0,0,0,0,0,0,0,0,0,0,0,0],"id":16,"left_children":[1,3,5,7,9,11,13,15,17,19,21,23,25,27,29,31,33,35,37,39,41,43,45,-1,47,49,51,53,55,57,59,61,63,65,67,69,71,73,75,77,79,81,-1,83,85,87,-1,-1,-1,89,-1,91,93,-1,-1,95,97,99,101,103,105,-1,-1,-1,-1,-1,-1,-1,-1,-1,-1,-1,-1,-1,-1,-1,-1,-1,-1,-1,-1,-1,-1,-1,-1,-1,-1,-1,-1,-1,-1,-1,-1,-1,-1,-1,-1,-1,-1,-1,-1,-1,-1,-1,-1,-1,-1],"loss_changes":[1.01881984E9,5.5731725E8,3.0980128E7,1.1737435E8,2.3675123E8,7.222432E6,1.315212E7,3.013082E7,4.828477E7,4.4658016E7,4.5856704E7,2.090752E6,3.829344E6,1.7432E6,3.9280075E6,5.169584E6,9.116514E6,6.223294E6,6.228456E6,7.137824E6,9.652576E6,9.435072E6,1.9948352E7,0E0,1.53728E5,5.16928E5,9.3142E5,4.181E3,1.97556E6,1.353138E6,1.0633322E6,2.25256E5,2.92138E5,1.8725255E6,6.067155E5,3.7690725E5,1.744856E6,1.075314E6,2.642296E6,1.113516E6,2.365632E6,2.395344E6,0E0,1.619984E6,3.864432E6,5.03872E5,0E0,0E0,0E0,2.26992E5,0E0,2.4548E5,2.05106E5,0E0,0E0,3.05096E5,2.9812E5,3.65718E5,5.277146E5,4.830406E5,9.423831E5,0E0,0E0,0E0,0E0,0E0,0E0,0E0,0E0,0E0,0E0,0E0,0E0,0E0,0E0,0E0,0E0,0E0,0E0,0E0,0E0,0E0,0E0,0E0,0E0,0E0,0E0,0E0,0E0,0E0,0E0,0E0,0E0,0E0,0E0,0E0,0E0,0E0,0E0,0E0,0E0,0E0,0E0,0E0,0E0,0E0,0E0],"parents":[2147483647,0,0,1,1,2,2,3,3,4,4,5,5,6,6,7,7,8,8,9,9,10,10,11,11,12,12,13,13,14,14,15,15,16,16,17,17,18,18,19,19,20,20,21,21,22,22,24,24,25,25,26,26,27,27,28,28,29,29,30,30,31,31,32,32,33,33,34,34,35,35,36,36,37,37,38,38,39,39,40,40,41,41,43,43,44,44,45,45,49,49,51,51,52,52,55,55,56,56,57,57,58,58,59,59,60,60],"right_children":[2,4,6,8,10,12,14,16,18,20,22,24,26,28,30,32,34,36,38,40,42,44,46,-1,48,50,52,54,56,58,60,62,64,66,68,70,72,74,76,78,80,82,-1,84,86,88,-1,-1,-1,90,-1,92,94,-1,-1,96,98,100,102,104,106,-1,-1,-1,-1,-1,-1,-1,-1,-1,-1,-1,-1,-1,-1,-1,-1,-1,-1,-1,-1,-1,-1,-1,-1,-1,-1,-1,-1,-1,-1,-1,-1,-1,-1,-1,-1,-1,-1,-1,-1,-1,-1,-1,-1,-1,-1],"split_conditions":[1E0,4.3098E4,4.2361E4,2.9469E4,1E0,2.5515E4,1E0,1.9738E4,1E0,5.97E4,2E0,1.1626E4,1E0,1E0,6.1476E4,1.2223E4,2E0,3.461E4,3.4003E4,5.0311E4,7.9465E4,5.521E4,6.3817E4,-9.162424E1,2E0,4E0,3.4776E4,7.2213E4,5.8508E4,2E0,2E0,6.743E3,2E0,1E0,2.192E4,3.1927E4,1E0,2E0,2E0,1E0,1E0,1E0,2.5733728E2,1E0,1E0,4.7644E4,4.6496255E2,-7.08034E1,-5.4387714E1,1E0,-5.216386E1,2E0,3.4932E4,-6.94891E1,-1.999381E1,4.8561E4,3E0,4E0,4E0,1E0,2E0,-1.07221924E2,-7.871106E1,-5.483688E1,-2.8335844E1,-2.078093E1,3.1044805E0,1.6497705E1,6.04772E1,-3.3431976E0,8.60432E0,-5.6388793E0,3.4771244E1,5.3250874E1,9.2558655E1,9.810491E1,1.4668846E2,1.1616366E1,6.2223904E1,3.318084E1,9.456185E1,6.641015E1,1.4232718E2,7.881243E1,1.6616374E2,8.286336E1,2.41476E2,2.1051785E2,2.9053406E2,-7.613332E1,-6.134936E1,-5.6332546E1,-3.9637684E1,-2.7870767E0,-3.6602715E1,-5.0536175E1,-4.277183E1,-2.6282267E1,-3.669549E1,-3.1346064E1,-1.8544523E1,-1.4289271E1,7.1015153E0,-3.8031925E1,4.2651157E0,5.6696716E1,7.1215982E0],"split_indices":[3,5,5,5,2,5,2,5,2,5,2,5,2,0,5,5,2,5,5,5,5,5,5,0,2,0,5,5,5,2,2,5,2,2,5,5,0,2,2,0,0,0,0,0,0,5,0,0,0,0,0,2,5,0,0,5,0,0,0,0,0,0,0,0,0,0,0,0,0,0,0,0,0,0,0,0,0,0,0,0,0,0,0,0,0,0,0,0,0,0,0,0,0,0,0,0,0,0,0,0,0,0,0,0,0,0,0],"split_type":[0,0,0,0,0,0,0,0,0,0,0,0,0,0,0,0,0,0,0,0,0,0,0,0,0,0,0,0,0,0,0,0,0,0,0,0,0,0,0,0,0,0,0,0,0,0,0,0,0,0,0,0,0,0,0,0,0,0,0,0,0,0,0,0,0,0,0,0,0,0,0,0,0,0,0,0,0,0,0,0,0,0,0,0,0,0,0,0,0,0,0,0,0,0,0,0,0,0,0,0,0,0,0,0,0,0,0],"sum_hessian":[3.179E3,1.433E3,1.746E3,8.21E2,6.12E2,9.91E2,7.55E2,3.74E2,4.47E2,4.41E2,1.71E2,3.43E2,6.48E2,5.21E2,2.34E2,1.37E2,2.37E2,3.19E2,1.28E2,3.2E2,1.21E2,1.05E2,6.6E1,6.6E1,2.77E2,4.62E2,1.86E2,2.9E1,4.92E2,1.91E2,4.3E1,5.2E1,8.5E1,2.16E2,2.1E1,1.04E2,2.15E2,4.8E1,8E1,1.61E2,1.59E2,1.13E2,8E0,6.4E1,4.1E1,5.8E1,8E0,2.52E2,2.5E1,3.63E2,9.9E1,8.1E1,1.05E2,2.8E1,1E0,3.45E2,1.47E2,1.24E2,6.7E1,2.8E1,1.5E1,2.5E1,2.7E1,7.7E1,8E0,1.76E2,4E1,5E0,1.6E1,5E1,5.4E1,1.1E1,2.04E2,3.6E1,1.2E1,5.8E1,2.2E1,5E0,1.56E2,8E0,1.51E2,7E0,1.06E2,5E0,5.9E1,3E0,3.8E1,1.6E1,4.2E1,3E1,3.33E2,5.5E1,2.6E1,2E0,1.03E2,1.63E2,1.82E2,6.7E1,8E1,8.6E1,3.8E1,5.3E1,1.4E1,2E0,2.6E1,7E0,8E0],"tree_param":{"num_deleted":"0","num_feature":"7","num_nodes":"107","size_leaf_vector":"1"}},{"base_weights":[-3.7401843E0,5.44467E2,-4.4964667E2,3.2106415E2,1.1534377E3,-5.0497415E2,-3.1257397E2,-4.3675022E1,3.430227E2,9.597581E2,1.5471143E3,-6.9234024E1,-4.9200714E2,-3.6271194E2,-2.1678934E2,9.595475E1,-5.811327E1,2.9740988E2,4.7610217E2,4.1755212E2,9.915093E2,1.7650116E3,1.241661E3,-4.2683008E2,-5.0662903E2,-3.03647E2,-4.3417612E2,-4.8616318E1,-1.9232294E2,1.3514739E1,4.2571597E0,-1.105452E2,-7.29343E0,3.7045624E2,1.9169304E2,5.467335E2,4.4068707E2,6.6345314E1,2.802974E2,1.1575321E3,8.589632E2,9.728264E1,1.8109825E2,1.7054794E2,1.1138384E3,-3.5047157E1,-4.413467E1,-5.3381647E2,-4.5065088E2,-5.1345276E1,-2.778039E2,-4.634397E2,-3.046002E2,-2.7838034E1,-2.4210365E2,-7.110463E0,-1.7048368E1,-6.719041E0,5.308978E0,4.2543427E1,3.0723469E1,3.3266533E1,1.6952353E1,4.463076E1,7.044917E1,6.2398407E1,4.035167E1,1.1177524E1,4.9387337E1,1.3175089E2,1.0299682E2,6.524795E1,1.0315167E2,1.1861896E2,8.099942E1,-4.8144577E1,-5.730661E1,-3.878018E1,-4.601903E1,-1.9686703E1,-3.2294945E1,-4.0247375E1,-5.237507E1,-3.9414898E1,-2.5412113E1,5.110768E0,-5.322534E0,-3.0073603E1,-9.995227E0],"categories":[],"categories_nodes":[],"categories_segments":[],"categories_sizes":[],"default_left":[0,0,0,0,0,0,0,0,0,0,0,0,0,0,0,0,0,0,0,0,0,0,0,0,0,0,0,0,0,0,0,0,0,0,0,0,0,0,0,0,0,0,0,0,0,0,0,0,0,0,0,0,0,0,0,0,0,0,0,0,0,0,0,0,0,0,0,0,0,0,0,0,0,0,0,0,0,0,0,0,0,0,0,0,0,0,0,0,0],"id":17,"left_children":[1,3,5,7,9,11,13,15,17,19,21,-1,23,25,27,29,31,33,35,37,39,41,43,45,47,49,51,-1,53,-1,-1,55,57,59,61,63,65,-1,67,69,71,-1,-1,-1,73,-1,-1,75,77,-1,79,81,83,85,87,-1,-1,-1,-1,-1,-1,-1,-1,-1,-1,-1,-1,-1,-1,-1,-1,-1,-1,-1,-1,-1,-1,-1,-1,-1,-1,-1,-1,-1,-1,-1,-1,-1,-1],"loss_changes":[7.7441517E8,1.9295069E8,1.3091232E7,8.352488E6,2.7565312E7,2.67936E6,2.346604E6,1.26536805E5,5.819264E6,4.027632E6,6.0616E6,0E0,8.94944E5,1.261104E6,1.0664465E6,6.799918E3,1.4574573E5,5.597112E6,3.81916E5,3.5405325E5,4.35312E6,7.87456E5,1.361128E6,8.918E4,1.200672E6,8.55016E5,4.1624E5,0E0,1.3279325E6,0E0,0E0,5.1706062E4,1.0845351E5,1.374312E6,8.87444E5,9.37178E5,9.1327E5,0E0,3.767045E5,7.8576E5,4.279464E6,0E0,0E0,0E0,5.0432E4,0E0,0E0,1.0232E6,1.0992E4,0E0,5.42977E5,2.23078E5,3.544875E4,8.088476E4,1.011775E6,0E0,0E0,0E0,0E0,0E0,0E0,0E0,0E0,0E0,0E0,0E0,0E0,0E0,0E0,0E0,0E0,0E0,0E0,0E0,0E0,0E0,0E0,0E0,0E0,0E0,0E0,0E0,0E0,0E0,0E0,0E0,0E0,0E0,0E0],"parents":[2147483647,0,0,1,1,2,2,3,3,4,4,5,5,6,6,7,7,8,8,9,9,10,10,12,12,13,13,14,14,15,15,16,16,17,17,18,18,19,19,20,20,21,21,22,22,23,23,24,24,25,25,26,26,28,28,31,31,32,32,33,33,34,34,35,35,36,36,38,38,39,39,40,40,44,44,47,47,48,48,50,50,51,51,52,52,53,53,54,54],"right_children":[2,4,6,8,10,12,14,16,18,20,22,-1,24,26,28,30,32,34,36,38,40,42,44,46,48,50,52,-1,54,-1,-1,56,58,60,62,64,66,-1,68,70,72,-1,-1,-1,74,-1,-1,76,78,-1,80,82,84,86,88,-1,-1,-1,-1,-1,-1,-1,-1,-1,-1,-1,-1,-1,-1,-1,-1,-1,-1,-1,-1,-1,-1,-1,-1,-1,-1,-1,-1,-1,-1,-1,-1,-1,-1],"split_conditions":[1E0,1E0,1E0,1E0,2E0,1E0,2E0,1E0,4E0,1E0,3E0,-6.9234024E1,2E0,3E0,1E0,1.21E2,3E0,3E0,5E0,1E0,3E0,1E0,2E0,1E0,4E0,1E0,5E0,-4.8616318E1,2E0,1.3514739E1,4.2571597E0,1.21E2,1.21E2,3E0,1E0,3E0,1E0,6.6345314E1,3E0,1.21E2,4E0,9.728264E1,1.8109825E2,1.7054794E2,4E0,-3.5047157E1,-4.413467E1,3E0,1E0,-5.1345276E1,3E0,3E0,1.21E2,1E0,4E0,-7.110463E0,-1.7048368E1,-6.719041E0,5.308978E0,4.2543427E1,3.0723469E1,3.3266533E1,1.6952353E1,4.463076E1,7.044917E1,6.2398407E1,4.035167E1,1.1177524E1,4.9387337E1,1.3175089E2,1.0299682E2,6.524795E1,1.0315167E2,1.1861896E2,8.099942E1,-4.8144577E1,-5.730661E1,-3.878018E1,-4.601903E1,-1.9686703E1,-3.2294945E1,-4.0247375E1,-5.237507E1,-3.9414898E1,-2.5412113E1,5.110768E0,-5.322534E0,-3.0073603E1,-9.995227E0],"split_indices":[3,2,2,0,2,0,2,4,0,0,4,0,0,4,0,6,4,0,0,4,0,0,0,4,0,0,0,0,0,0,0,6,6,4,4,4,4,0,4,6,0,0,0,0,0,0,0,0,4,0,0,0,6,4,0,0,0,0,0,0,0,0,0,0,0,0,0,0,0,0,0,0,0,0,0,0,0,0,0,0,0,0,0,0,0,0,0,0,0],"split_type":[0,0,0,0,0,0,0,0,0,0,0,0,0,0,0,0,0,0,0,0,0,0,0,0,0,0,0,0,0,0,0,0,0,0,0,0,0,0,0,0,0,0,0,0,0,0,0,0,0,0,0,0,0,0,0,0,0,0,0,0,0,0,0,0,0,0,0,0,0,0,0,0,0,0,0,0,0,0,0,0,0,0,0,0,0,0,0,0,0],"sum_hessian":[3.166E3,1.42E3,1.746E3,1.04E3,3.8E2,1.242E3,5.04E2,5.9E1,9.81E2,2.57E2,1.23E2,7.7E1,1.165E3,3.29E2,1.75E2,5E0,5.4E1,7.33E2,2.48E2,1.5E1,2.42E2,6.9E1,5.4E1,2.19E2,9.46E2,1.83E2,1.46E2,1.3E1,1.62E2,2E0,3E0,2.6E1,2.8E1,4.32E2,3.01E2,7.8E1,1.7E2,4E0,1.1E1,1.04E2,1.38E2,5E0,6.4E1,9E0,4.5E1,3.9E1,1.8E2,6.31E2,3.15E2,1.8E1,1.65E2,1.17E2,2.9E1,3.8E1,1.24E2,1.7E1,9E0,1.4E1,1.4E1,2.28E2,2.04E2,3.9E1,2.62E2,5E1,2.8E1,2.6E1,1.44E2,7E0,4E0,4.2E1,6.2E1,6.5E1,7.3E1,3.4E1,1.1E1,2.76E2,3.55E2,4.7E1,2.68E2,6.1E1,1.04E2,6.2E1,5.5E1,8E0,2.1E1,9E0,2.9E1,8.7E1,3.7E1],"tree_param":{"num_deleted":"0","num_feature":"7","num_nodes":"89","size_leaf_vector":"1"}},{"base_weights":[1.0266275E1,-2.4549629E2,4.3370575E2,-5.478304E2,-1.1179581E2,3.5237332E2,1.2036534E3,-7.7907294E2,-4.544015E2,-2.121995E2,-5.425396E0,2.1644669E2,4.884014E2,1.0564011E3,2.1149092E3,-8.894458E1,-7.006169E1,-5.1984247E2,-3.8868353E2,-1.13151955E2,-2.630602E2,-3.0851782E2,1.5172392E1,-1.3680136E2,2.415027E2,4.2186777E2,6.8205255E2,9.101877E2,1.7253268E3,-1.7764641E2,2.4812751E3,-5.571226E1,-4.8193214E1,-4.1561163E2,-3.1683353E1,-2.284612E2,-4.4279926E1,-3.029931E2,-1.4103221E2,-3.6297247E2,3.1315833E2,5.80296E1,-1.2946448E2,-2.017889E2,-1.5622637E1,3.6608627E2,1.7130608E2,5.0640622E2,2.7710797E2,1.051046E3,5.9111554E2,7.154166E2,1.4041177E3,1.27696E2,2.3345059E2,-3.7909267E1,1.1262305E1,9.752699E2,2.8355498E3,-3.5190277E1,-4.4968082E1,-4.5416565E1,-2.0123466E1,8.943554E0,-7.470428E0,-2.5762217E1,-3.6970512E1,-8.116363E0,-2.3634872E1,7.3231544E0,-4.134738E1,5.632649E1,4.2034507E0,1.6484474E1,3.6218205E-1,-2.3714874E1,-9.931077E0,-1.3439761E1,-4.3099625E1,1.4917005E1,-1.5786341E1,2.7832691E1,5.8949158E1,1.1130363E1,3.6373318E1,4.1025723E1,6.9614006E1,-7.8503456E0,3.0792953E1,1.8208925E2,7.290475E1,2.1643E1,7.119952E1,1.07237686E2,4.9772152E1,1.923267E1,1.9222557E2,-2.3396242E0,1.3159575E2,1.7523521E2,3.568277E2],"categories":[],"categories_nodes":[],"categories_segments":[],"categories_sizes":[],"default_left":[0,0,0,0,0,0,0,0,0,0,0,0,0,0,0,0,0,0,0,0,0,0,0,0,0,0,0,0,0,0,0,0,0,0,0,0,0,0,0,0,0,0,0,0,0,0,0,0,0,0,0,0,0,0,0,0,0,0,0,0,0,0,0,0,0,0,0,0,0,0,0,0,0,0,0,0,0,0,0,0,0,0,0,0,0,0,0,0,0,0,0,0,0,0,0,0,0,0,0,0,0],"id":18,"left_children":[1,3,5,7,9,11,13,15,17,19,21,23,25,27,29,-1,-1,31,33,35,37,39,41,43,45,47,49,51,53,55,57,-1,-1,59,-1,61,63,65,67,69,71,73,75,77,79,81,83,85,87,89,91,93,95,-1,-1,-1,-1,97,99,-1,-1,-1,-1,-1,-1,-1,-1,-1,-1,-1,-1,-1,-1,-1,-1,-1,-1,-1,-1,-1,-1,-1,-1,-1,-1,-1,-1,-1,-1,-1,-1,-1,-1,-1,-1,-1,-1,-1,-1,-1,-1],"loss_changes":[3.4742448E8,8.078318E7,7.52229E7,1.2889696E7,1.4822664E7,2.0122176E7,1.3197024E7,8.92232E5,1.685928E6,3.5671E6,4.2187285E6,4.892228E6,6.747096E6,8.308032E6,1.3039508E7,0E0,0E0,3.8188E4,2.9978E5,1.9276295E6,2.25242E6,1.5693542E6,3.9313105E6,2.882265E5,4.42365E6,4.86492E6,4.009328E6,7.172744E6,1.662236E6,2.1811566E5,4.170584E6,0E0,0E0,1.86868E5,0E0,4.67815E5,6.3318506E5,9.76238E5,6.5417975E5,9.11435E5,2.4756284E5,2.8412625E6,4.4727525E5,3.1279306E5,3.517118E5,3.443414E6,3.769726E6,4.40278E6,1.701129E6,5.117608E6,4.963876E6,4.36189E6,1.4071424E7,0E0,0E0,0E0,0E0,1.391721E6,1.684E6,0E0,0E0,0E0,0E0,0E0,0E0,0E0,0E0,0E0,0E0,0E0,0E0,0E0,0E0,0E0,0E0,0E0,0E0,0E0,0E0,0E0,0E0,0E0,0E0,0E0,0E0,0E0,0E0,0E0,0E0,0E0,0E0,0E0,0E0,0E0,0E0,0E0,0E0,0E0,0E0,0E0,0E0],"parents":[2147483647,0,0,1,1,2,2,3,3,4,4,5,5,6,6,7,7,8,8,9,9,10,10,11,11,12,12,13,13,14,14,17,17,18,18,19,19,20,20,21,21,22,22,23,23,24,24,25,25,26,26,27,27,28,28,29,29,30,30,33,33,35,35,36,36,37,37,38,38,39,39,40,40,41,41,42,42,43,43,44,44,45,45,46,46,47,47,48,48,49,49,50,50,51,51,52,52,57,57,58,58],"right_children":[2,4,6,8,10,12,14,16,18,20,22,24,26,28,30,-1,-1,32,34,36,38,40,42,44,46,48,50,52,54,56,58,-1,-1,60,-1,62,64,66,68,70,72,74,76,78,80,82,84,86,88,90,92,94,96,-1,-1,-1,-1,98,100,-1,-1,-1,-1,-1,-1,-1,-1,-1,-1,-1,-1,-1,-1,-1,-1,-1,-1,-1,-1,-1,-1,-1,-1,-1,-1,-1,-1,-1,-1,-1,-1,-1,-1,-1,-1,-1,-1,-1,-1,-1,-1],"split_conditions":[4.4559E4,2.5702E4,6.8259E4,1.4657E4,3.6289E4,5.2602E4,7.9465E4,8.014E3,2.1413E4,1.21E2,1E0,1E0,4E0,4E0,1E0,-8.894458E1,-7.006169E1,1.8716E4,4E0,3.03E4,4E0,4.3795E4,3E0,4.952E4,1.21E2,3E0,1E0,3E0,7.4244E4,4E0,2E0,-5.571226E1,-4.8193214E1,2E0,-3.1683353E1,1E0,3.136E4,3E0,3E0,3.7048E4,1E0,1.21E2,3.7917E4,4.8729E4,1.21E2,4.9934E4,3E0,6.2064E4,5.3562E4,1E0,5.521E4,1.21E2,2E0,1.27696E2,2.3345059E2,-3.7909267E1,1.1262305E1,1.21E2,2E0,-3.5190277E1,-4.4968082E1,-4.5416565E1,-2.0123466E1,8.943554E0,-7.470428E0,-2.5762217E1,-3.6970512E1,-8.116363E0,-2.3634872E1,7.3231544E0,-4.134738E1,5.632649E1,4.2034507E0,1.6484474E1,3.6218205E-1,-2.3714874E1,-9.931077E0,-1.3439761E1,-4.3099625E1,1.4917005E1,-1.5786341E1,2.7832691E1,5.8949158E1,1.1130363E1,3.6373318E1,4.1025723E1,6.9614006E1,-7.8503456E0,3.0792953E1,1.8208925E2,7.290475E1,2.1643E1,7.119952E1,1.07237686E2,4.9772152E1,1.923267E1,1.9222557E2,-2.3396242E0,1.3159575E2,1.7523521E2,3.568277E2],"split_indices":[5,5,5,5,5,5,5,5,5,6,0,0,0,0,4,0,0,5,0,5,0,5,1,5,6,0,4,1,5,0,0,0,0,0,0,0,5,0,4,5,1,6,5,5,6,5,1,5,5,1,5,6,0,0,0,0,0,6,1,0,0,0,0,0,0,0,0,0,0,0,0,0,0,0,0,0,0,0,0,0,0,0,0,0,0,0,0,0,0,0,0,0,0,0,0,0,0,0,0,0,0],"split_type":[0,0,0,0,0,0,0,0,0,0,0,0,0,0,0,0,0,0,0,0,0,0,0,0,0,0,0,0,0,0,0,0,0,0,0,0,0,0,0,0,0,0,0,0,0,0,0,0,0,0,0,0,0,0,0,0,0,0,0,0,0,0,0,0,0,0,0,0,0,0,0,0,0,0,0,0,0,0,0,0,0,0,0,0,0,0,0,0,0,0,0,0,0,0,0,0,0,0,0,0,0],"sum_hessian":[3.206E3,1.999E3,1.207E3,6.12E2,1.387E3,1.093E3,1.14E2,1.74E2,4.38E2,7.13E2,6.74E2,5.48E2,5.45E2,1E2,1.4E1,6.8E1,1.06E2,2.16E2,2.22E2,2.43E2,4.7E2,4.2E1,6.32E2,3.6E1,5.12E2,4.08E2,1.37E2,8.4E1,1.6E1,2E0,1.2E1,1.02E2,1.14E2,1.58E2,6.4E1,9E1,1.53E2,3.53E2,1.17E2,3.9E1,3E0,4.88E2,1.44E2,2.3E1,1.3E1,1.83E2,3.29E2,2.56E2,1.52E2,2.5E1,1.12E2,6.2E1,2.2E1,1.1E1,5E0,1E0,1E0,3E0,9E0,5.9E1,9.9E1,8E0,8.2E1,2.8E1,1.25E2,2.13E2,1.4E2,7.3E1,4.4E1,4E0,3.5E1,1E0,2E0,1.64E2,3.24E2,3E1,1.14E2,1.9E1,4E0,6E0,7E0,1.33E2,5E1,2.52E2,7.7E1,1.72E2,8.4E1,1.2E1,1.4E2,6E0,1.9E1,2.8E1,8.4E1,2.2E1,4E1,7E0,1.5E1,1E0,2E0,5E0,4E0],"tree_param":{"num_deleted":"0","num_feature":"7","num_nodes":"101","size_leaf_vector":"1"}},{"base_weights":[3.6645715E0,-3.2966696E2,2.3905006E2,-5.670502E2,-2.2400444E2,7.9457115E1,6.070482E2,-7.431114E2,-4.7527527E2,-2.8019592E2,-6.792016E1,-7.320082E1,2.8831525E2,4.0347055E2,9.6987823E2,-8.21088E1,-6.677029E1,-4.9128387E2,-2.91384E2,-3.3789304E2,-1.8593718E2,-1.3364136E2,9.97484E1,-1.2551649E2,4.480925E0,2.2710799E2,8.0360596E2,2.829304E2,6.513469E2,7.709672E2,1.4170173E3,-5.5250072E1,-4.590166E1,-3.6441003E2,-1.8799048E2,-4.9743256E1,-3.2371814E2,-2.2240451E2,-7.011077E1,1.1273759E1,-1.9333446E2,-8.112012E0,2.899072E2,-3.8616592E2,-1.1121636E2,-2.862715E1,1.732425E2,1.705257E2,4.2487933E2,-2.8724533E2,9.349974E2,-1.4351555E2,3.1722662E2,5.1708777E2,9.960094E2,4.3040672E1,8.199018E2,1.1255612E3,1.9185736E3,-9.328241E0,-4.364201E1,-2.5731531E1,-3.9472656E0,-3.761546E1,-2.8849752E1,-1.6911589E1,-3.0914555E1,-1.9895603E1,1.626182E1,4.340485E0,-3.8515057E1,-1.1130178E1,-2.8476301E1,-1.5006042E1,8.343024E0,4.1422253E1,-1.7279512E1,-4.2854824E1,3.92321E0,-1.8598877E1,-7.4993668E0,-9.73924E0,2.5912008E0,-2.386354E0,4.056654E1,2.3713339E1,4.822028E0,1.8966194E1,5.335678E1,-5.2038326E1,5.55791E1,8.0190056E1,1.3118285E2,-2.6176224E1,-1.0917286E0,2.4830412E1,4.5451782E1,2.121577E1,6.4357994E1,1.352108E2,7.147448E1,3.390591E1,-4.8575172E1,6.499721E1,1.13776505E2,1.6216888E1,1.19735085E2,2.3453203E2,4.6082016E1],"categories":[],"categories_nodes":[],"categories_segments":[],"categories_sizes":[],"default_left":[0,0,0,0,0,0,0,0,0,0,0,0,0,0,0,0,0,0,0,0,0,0,0,0,0,0,0,0,0,0,0,0,0,0,0,0,0,0,0,0,0,0,0,0,0,0,0,0,0,0,0,0,0,0,0,0,0,0,0,0,0,0,0,0,0,0,0,0,0,0,0,0,0,0,0,0,0,0,0,0,0,0,0,0,0,0,0,0,0,0,0,0,0,0,0,0,0,0,0,0,0,0,0,0,0,0,0,0,0],"id":19,"left_children":[1,3,5,7,9,11,13,15,17,19,21,23,25,27,29,-1,-1,31,33,35,37,39,41,43,45,47,49,51,53,55,57,-1,-1,59,61,-1,63,65,67,69,71,73,75,77,79,81,83,85,87,89,91,93,95,97,99,101,103,105,107,-1,-1,-1,-1,-1,-1,-1,-1,-1,-1,-1,-1,-1,-1,-1,-1,-1,-1,-1,-1,-1,-1,-1,-1,-1,-1,-1,-1,-1,-1,-1,-1,-1,-1,-1,-1,-1,-1,-1,-1,-1,-1,-1,-1,-1,-1,-1,-1,-1,-1],"loss_changes":[2.4966454E8,3.290664E7,1.09483064E8,6.190816E6,7.988528E6,4.153388E7,4.1268016E7,2.57328E5,6.4874E5,3.586384E6,2.6910395E6,3.0607338E6,1.7164236E7,1.0661812E7,1.68736E7,0E0,0E0,2.32316E5,1.1270425E5,7.77472E5,1.069945E6,1.5160052E6,1.4175838E6,1.634346E6,1.7035201E6,5.444392E6,8.58162E6,3.643398E6,4.94532E6,5.022864E6,6.7576E6,0E0,0E0,2.1310062E5,1.1339472E5,0E0,6.00668E5,8.49069E5,1.9214732E6,6.7906975E5,8.98321E5,5.97262E5,1.5096008E6,4.31488E5,1.145272E6,9.5887525E5,2.3002782E6,3.124961E6,2.685432E6,1.6650305E6,1.556108E6,2.9504906E5,2.044582E6,3.219162E6,2.23864E6,1.7300212E6,6.4444E6,2.641456E6,1.1983152E7,0E0,0E0,0E0,0E0,0E0,0E0,0E0,0E0,0E0,0E0,0E0,0E0,0E0,0E0,0E0,0E0,0E0,0E0,0E0,0E0,0E0,0E0,0E0,0E0,0E0,0E0,0E0,0E0,0E0,0E0,0E0,0E0,0E0,0E0,0E0,0E0,0E0,0E0,0E0,0E0,0E0,0E0,0E0,0E0,0E0,0E0,0E0,0E0,0E0,0E0],"parents":[2147483647,0,0,1,1,2,2,3,3,4,4,5,5,6,6,7,7,8,8,9,9,10,10,11,11,12,12,13,13,14,14,17,17,18,18,19,19,20,20,21,21,22,22,23,23,24,24,25,25,26,26,27,27,28,28,29,29,30,30,33,33,34,34,36,36,37,37,38,38,39,39,40,40,41,41,42,42,43,43,44,44,45,45,46,46,47,47,48,48,49,49,50,50,51,51,52,52,53,53,54,54,55,55,56,56,57,57,58,58],"right_children":[2,4,6,8,10,12,14,16,18,20,22,24,26,28,30,-1,-1,32,34,36,38,40,42,44,46,48,50,52,54,56,58,-1,-1,60,62,-1,64,66,68,70,72,74,76,78,80,82,84,86,88,90,92,94,96,98,100,102,104,106,108,-1,-1,-1,-1,-1,-1,-1,-1,-1,-1,-1,-1,-1,-1,-1,-1,-1,-1,-1,-1,-1,-1,-1,-1,-1,-1,-1,-1,-1,-1,-1,-1,-1,-1,-1,-1,-1,-1,-1,-1,-1,-1,-1,-1,-1,-1,-1,-1,-1,-1],"split_conditions":[3.6461E4,2.192E4,1E0,1.3052E4,1E0,5.0311E4,5.1938E4,6.743E3,2E0,3.1629E4,4E0,4.4559E4,6.967E4,2E0,2E0,-8.21088E1,-6.677029E1,1.6772E4,1.8113E4,1E0,4E0,1E0,2E0,1E0,5E0,4E0,1E0,1E0,4E0,1E0,6.2064E4,-5.5250072E1,-4.590166E1,1E0,3E0,-4.9743256E1,2.6367E4,3E0,3.461E4,3.6148E4,3E0,2.6367E4,3.4344E4,4.3513E4,3.9173E4,2E0,2E0,3E0,5.4956E4,3E0,4E0,4.3795E4,4.6012E4,4.1353E4,2E0,5.994E4,6.2513E4,1E0,6.967E4,-9.328241E0,-4.364201E1,-2.5731531E1,-3.9472656E0,-3.761546E1,-2.8849752E1,-1.6911589E1,-3.0914555E1,-1.9895603E1,1.626182E1,4.340485E0,-3.8515057E1,-1.1130178E1,-2.8476301E1,-1.5006042E1,8.343024E0,4.1422253E1,-1.7279512E1,-4.2854824E1,3.92321E0,-1.8598877E1,-7.4993668E0,-9.73924E0,2.5912008E0,-2.386354E0,4.056654E1,2.3713339E1,4.822028E0,1.8966194E1,5.335678E1,-5.2038326E1,5.55791E1,8.0190056E1,1.3118285E2,-2.6176224E1,-1.0917286E0,2.4830412E1,